{"learner":{"attributes":{"scikit_learn":"{\"_estimator_type\": \"classifier\"}"},"feature_names":["step","amount","oldbalanceorg","newbalanceorig","oldbalancedest","newbalancedest","balancechangeorig","balancechangedest","errorbalanceorig","errorbalancedest","issameuser","type_encoded"],"feature_types":["int","float","float","float","float","float","float","float","float","float","i","int"],"gradient_booster":{"model":{"cats":{"enc":[],"feature_segments":[],"sorted_idx":[]},"gbtree_model_param":{"num_parallel_tree":"1","num_trees":"100"},"iteration_indptr":[0,1,2,3,4,5,6,7,8,9,10,11,12,13,14,15,16,17,18,19,20,21,22,23,24,25,26,27,28,29,30,31,32,33,34,35,36,37,38,39,40,41,42,43,44,45,46,47,48,49,50,51,52,53,54,55,56,57,58,59,60,61,62,63,64,65,66,67,68,69,70,71,72,73,74,75,76,77,78,79,80,81,82,83,84,85,86,87,88,89,90,91,92,93,94,95,96,97,98,99,100],"tree_info":[0,0,0,0,0,0,0,0,0,0,0,0,0,0,0,0,0,0,0,0,0,0,0,0,0,0,0,0,0,0,0,0,0,0,0,0,0,0,0,0,0,0,0,0,0,0,0,0,0,0,0,0,0,0,0,0,0,0,0,0,0,0,0,0,0,0,0,0,0,0,0,0,0,0,0,0,0,0,0,0,0,0,0,0,0,0,0,0,0,0,0,0,0,0,0,0,0,0,0,0],"trees":[{"base_weights":[-7.859824E-3,-1.9499207E0,1.3810788E0,-1.9648368E0,-1.703474E-1,-8.4753865E-1,1.815562E0,-1.1187027E0,-1.9711949E0,-1.9991419E-1,1.9965539E0,7.879544E-1,-1.9998665E-1,1.8636658E0,-1.1779674E0,-1.9990288E-1,-1.27565E-1,-1.7621464E0,-1.9835262E0,-1.1999351E-1,1.999219E-1,1.5153454E-1,1.9869196E0,1.2075611E0,1.9452311E0,-1.9996618E-1,1.9987747E-1,1.4330174E0,-1.997758E-1,2.4595362E-1,-1.7982035E0,-1.9381434E0,-1.9916234E0,1.8188413E0,-1.9997661E-1,1.996531E0,-1.9577889E-1,1.8161672E0,-1.9997253E-1,1.829321E0,1.9897475E0,1.9856384E-1,-1.9871333E-1,-1.9894621E-1,1.3668913E-1,-1.5448233E-1,-1.999779E-1,-1.9998513E-1,-1.848511E-1,-1.9798712E-1,-1.9998845E-1,1.8491313E-1,-1.9875847E-1,1.9972563E-1,-1.5554714E-1,1.8952306E-1,1.3511899E-1,1.9311422E-1,-1.9994326E-1,1.9419298E-1,1.9960284E-1],"categories":[],"categories_nodes":[],"categories_segments":[],"categories_sizes":[],"default_left":[0,0,0,0,0,0,0,0,0,0,0,0,0,0,0,0,0,0,0,0,0,0,0,0,0,0,0,0,0,0,0,0,0,0,0,0,0,0,0,0,0,0,0,0,0,0,0,0,0,0,0,0,0,0,0,0,0,0,0,0,0],"id":0,"left_children":[1,3,5,7,9,11,13,15,17,-1,19,21,-1,23,25,-1,27,29,31,-1,-1,33,35,37,39,-1,-1,41,-1,43,45,47,49,51,-1,53,-1,55,-1,57,59,-1,-1,-1,-1,-1,-1,-1,-1,-1,-1,-1,-1,-1,-1,-1,-1,-1,-1,-1,-1],"loss_changes":[3.82541E6,1.569675E4,8.00626E5,3.15225E3,1.9487098E4,2.5423505E5,9.96415E4,3.8179355E3,1.49725E3,0E0,2.1573242E1,4.2547305E4,0E0,3.64415E4,2.8570531E4,0E0,6.0137773E3,2.3486172E3,1.98E2,0E0,0E0,1.3066091E5,7.3696875E2,1.4699025E5,3.12175E3,0E0,0E0,2.126992E3,0E0,1.4383344E3,1.6240938E3,4.5678125E2,4.1375E1,2.3698203E3,0E0,5.2796875E1,0E0,2.3242188E3,0E0,6.5532E4,1.27375E2,0E0,0E0,0E0,0E0,0E0,0E0,0E0,0E0,0E0,0E0,0E0,0E0,0E0,0E0,0E0,0E0,0E0,0E0,0E0,0E0],"parents":[2147483647,0,0,1,1,2,2,3,3,4,4,5,5,6,6,7,7,8,8,10,10,11,11,13,13,14,14,16,16,17,17,18,18,21,21,22,22,23,23,24,24,27,27,29,29,30,30,31,31,32,32,33,33,35,35,37,37,39,39,40,40],"right_children":[2,4,6,8,10,12,14,16,18,-1,20,22,-1,24,26,-1,28,30,32,-1,-1,34,36,38,40,-1,-1,42,-1,44,46,48,50,52,-1,54,-1,56,-1,58,60,-1,-1,-1,-1,-1,-1,-1,-1,-1,-1,-1,-1,-1,-1,-1,-1,-1,-1,-1,-1],"split_conditions":[0E0,9.6803225E5,2.00192E4,9E0,2.7489755E6,1.9918E4,4.5474735E-13,1.7965156E5,1.6E1,-1.9991419E-1,2.101167E4,4E0,-1.9998665E-1,5.854063E4,2.7489755E6,-1.9990288E-1,1.144763E4,-1.7794801E6,9.3E1,-1.1999351E-1,1.999219E-1,2E0,1.96582E3,5.816706E4,2.3256995E5,-1.9996618E-1,1.9987747E-1,5E1,-1.997758E-1,2.910383E-11,5E1,8.731142E4,5E1,4.5474735E-13,-1.9997661E-1,4.5474735E-13,-1.9577889E-1,4.8442E4,-1.9997253E-1,2.3508612E5,3.2202525E5,1.9856384E-1,-1.9871333E-1,-1.9894621E-1,1.3668913E-1,-1.5448233E-1,-1.999779E-1,-1.9998513E-1,-1.848511E-1,-1.9798712E-1,-1.9998845E-1,1.8491313E-1,-1.9875847E-1,1.9972563E-1,-1.5554714E-1,1.8952306E-1,1.3511899E-1,1.9311422E-1,-1.9994326E-1,1.9419298E-1,1.9960284E-1],"split_indices":[8,9,1,0,1,2,8,1,0,0,2,11,0,1,1,0,4,8,0,0,0,11,4,2,1,0,0,2,0,9,2,7,2,8,0,8,0,2,0,2,1,0,0,0,0,0,0,0,0,0,0,0,0,0,0,0,0,0,0,0,0],"split_type":[0,0,0,0,0,0,0,0,0,0,0,0,0,0,0,0,0,0,0,0,0,0,0,0,0,0,0,0,0,0,0,0,0,0,0,0,0,0,0,0,0,0,0,0,0,0,0,0,0,0,0,0,0,0,0,0,0,0,0,0,0],"sum_hessian":[1.4181804E6,5.9134356E5,8.268369E5,5.8642806E5,4.915479E3,1.3489775E5,6.919391E5,4.375027E3,5.8205306E5,2.66575E3,2.2497292E3,5.5759246E4,7.91385E4,6.809964E5,1.09427295E4,2.3165E3,2.0585269E3,3.2429553E4,5.496235E5,1.5E0,2.2482292E3,3.642546E4,1.9333785E4,7.5300516E4,6.056959E5,8.69425E3,2.2484792E3,1.1222769E3,9.3625E2,5.719256E2,3.1857629E4,8.32532E4,4.6637028E5,2.052121E4,1.590425E4,1.9287285E4,4.65E1,6.329101E4,1.20095E4,1.6808522E5,4.3761062E5,9.665268E2,1.5575E2,1.9075E2,3.811756E2,1.4118878E4,1.773875E4,4.929475E4,3.3958453E4,1.9260678E5,2.737635E5,2.035971E4,1.615E2,1.9283785E4,3.5E0,5.4090547E4,9.200465E3,1.6373147E5,4.35375E3,5.0842395E4,3.8676825E5],"tree_param":{"num_deleted":"0","num_feature":"12","num_nodes":"61","size_leaf_vector":"1"}},{"base_weights":[4.690793E-3,-1.451379E0,1.4535794E0,-1.6078563E0,-2.4882126E-1,1.575059E0,-1.0837646E0,-1.292243E0,-1.7947074E0,1.8099842E0,-1.6519983E0,8.219571E-1,1.7464445E0,-1.8837453E0,1.8187538E-1,-1.1925898E-1,-1.7317113E0,-3.3864126E-1,-1.8153836E0,1.8204651E0,-1.806312E-1,6.145881E-4,-1.793156E0,1.5758432E0,-1.7748853E0,1.5704865E0,1.8015131E0,-1.8292673E0,-1.9130055E0,-1.5582238E0,6.4002466E-1,-1.4024689E0,-1.7930871E0,-1.8192194E-1,7.586807E-1,-1.8182609E0,-1.7455416E0,-1.8604062E-1,1.8241627E0,1.4386276E0,-1.2595848E0,-1.8218885E-1,-1.6085912E0,1.3891541E0,1.7985222E0,-1.8204337E-1,1.1104351E0,1.72114E0,-1.8203804E-1,1.7476777E0,1.8135298E0,-1.8843463E-1,-1.8184376E-1,-1.9808432E0,-1.8650012E0,-1.8219966E-1,-7.072952E-2,1.4493813E-1,-1.8601607E-1,-4.0097233E-2,-1.6524372E-1,-2.1599535E-2,-1.8020165E-1,1.5231077E-1,-1.8163727E-1,-1.8163589E-1,-1.8649076E-1,-1.8189847E-1,-1.165934E-1,1.8202718E-1,2.2144662E-1,1.5788023E-1,-1.8048131E-1,-1.8424289E-1,7.004583E-2,-9.7408175E-2,-1.8196143E-1,1.4287075E-1,-1.8162858E-1,1.8292211E-1,-1.8148224E-1,2.192755E-1,-1.8078744E-1,1.8096931E-1,1.597906E-1,1.7945112E-1,-1.8191022E-1,1.7912678E-1,1.8167913E-1,-1.8751031E-1,-2.0597553E-1,-1.8187274E-1,-1.9753997E-1],"categories":[],"categories_nodes":[],"categories_segments":[],"categories_sizes":[],"default_left":[0,0,0,0,0,0,0,0,0,0,0,0,0,0,0,0,0,0,0,0,0,0,0,0,0,0,0,0,0,0,0,0,0,0,0,0,0,0,0,0,0,0,0,0,0,0,0,0,0,0,0,0,0,0,0,0,0,0,0,0,0,0,0,0,0,0,0,0,0,0,0,0,0,0,0,0,0,0,0,0,0,0,0,0,0,0,0,0,0,0,0,0,0],"id":1,"left_children":[1,3,5,7,9,11,13,15,17,19,21,23,25,27,-1,29,31,33,35,37,-1,39,41,43,45,47,49,51,53,55,57,59,61,-1,63,65,67,-1,69,71,73,-1,75,77,79,-1,81,83,-1,85,87,-1,-1,89,91,-1,-1,-1,-1,-1,-1,-1,-1,-1,-1,-1,-1,-1,-1,-1,-1,-1,-1,-1,-1,-1,-1,-1,-1,-1,-1,-1,-1,-1,-1,-1,-1,-1,-1,-1,-1,-1,-1],"loss_changes":[2.9829328E6,1.3270188E5,2.1845138E5,3.6797625E4,2.3457505E5,8.7292875E4,7.519079E4,1.1962241E5,1.179975E4,1.2506875E3,1.12646875E4,2.454677E5,5.33575E3,3.6960938E1,0E0,6.910384E4,3.4087188E3,8.919405E3,7.45E1,4.5003125E2,0E0,6.8898867E3,2.33E2,4.0371562E3,3.7095E3,6.709478E4,2.6825E2,1.875E0,5.0015625E1,4.902117E3,8.378159E4,6.6406367E3,2.0033438E3,0E0,6.2098564E3,2.9375E1,6.4991406E2,0E0,4.5765625E1,8.101748E2,2.3160972E3,0E0,8.017949E2,6.704828E3,4.9186406E3,0E0,1.3906909E3,1.369375E3,0E0,1.2798734E4,2.175E1,0E0,0E0,5.3033203E1,4.583203E1,0E0,0E0,0E0,0E0,0E0,0E0,0E0,0E0,0E0,0E0,0E0,0E0,0E0,0E0,0E0,0E0,0E0,0E0,0E0,0E0,0E0,0E0,0E0,0E0,0E0,0E0,0E0,0E0,0E0,0E0,0E0,0E0,0E0,0E0,0E0,0E0,0E0,0E0],"parents":[2147483647,0,0,1,1,2,2,3,3,4,4,5,5,6,6,7,7,8,8,9,9,10,10,11,11,12,12,13,13,15,15,16,16,17,17,18,18,19,19,21,21,22,22,23,23,24,24,25,25,26,26,27,27,28,28,29,29,30,30,31,31,32,32,34,34,35,35,36,36,38,38,39,39,40,40,42,42,43,43,44,44,46,46,47,47,49,49,50,50,53,53,54,54],"right_children":[2,4,6,8,10,12,14,16,18,20,22,24,26,28,-1,30,32,34,36,38,-1,40,42,44,46,48,50,52,54,56,58,60,62,-1,64,66,68,-1,70,72,74,-1,76,78,80,-1,82,84,-1,86,88,-1,-1,90,92,-1,-1,-1,-1,-1,-1,-1,-1,-1,-1,-1,-1,-1,-1,-1,-1,-1,-1,-1,-1,-1,-1,-1,-1,-1,-1,-1,-1,-1,-1,-1,-1,-1,-1,-1,-1,-1,-1],"split_conditions":[3.3216E4,4E0,4.1786E2,1.4719E2,4.82391E3,1.13516E5,2.7489755E6,3.312912E4,9E0,1.96582E3,1.4E1,1.1445757E5,2.7078178E5,5.854063E4,1.8187538E-1,1.832E3,3.9E1,1.96582E3,3.49E2,2.910383E-11,-1.806312E-1,1.96582E3,1E-2,4E0,3.8802094E5,2.696547E5,4.312083E5,5.816706E4,2.3508612E5,1.21E2,4.1786E2,4.537246E4,4.122768E4,-1.8192194E-1,1.0050074E5,2.0013E4,1.405116E4,-1.8604062E-1,1.0146333E6,1.3931E4,1.8394249E6,-1.8218885E-1,9.3E1,2E0,4.82391E3,-1.8204337E-1,1.2425855E5,1.7879662E5,-1.8203804E-1,4.3556672E5,5.7005256E5,-1.8843463E-1,-1.8184376E-1,3.350382E4,2.3256995E5,-1.8219966E-1,-7.072952E-2,1.4493813E-1,-1.8601607E-1,-4.0097233E-2,-1.6524372E-1,-2.1599535E-2,-1.8020165E-1,1.5231077E-1,-1.8163727E-1,-1.8163589E-1,-1.8649076E-1,-1.8189847E-1,-1.165934E-1,1.8202718E-1,2.2144662E-1,1.5788023E-1,-1.8048131E-1,-1.8424289E-1,7.004583E-2,-9.7408175E-2,-1.8196143E-1,1.4287075E-1,-1.8162858E-1,1.8292211E-1,-1.8148224E-1,2.192755E-1,-1.8078744E-1,1.8096931E-1,1.597906E-1,1.7945112E-1,-1.8191022E-1,1.7912678E-1,1.8167913E-1,-1.8751031E-1,-2.0597553E-1,-1.8187274E-1,-1.9753997E-1],"split_indices":[6,11,3,9,5,2,1,1,0,4,0,1,2,1,0,6,0,4,0,9,0,4,9,11,9,1,2,2,2,6,3,4,5,0,4,6,6,0,2,2,1,0,0,11,5,0,1,5,0,1,2,0,0,3,1,0,0,0,0,0,0,0,0,0,0,0,0,0,0,0,0,0,0,0,0,0,0,0,0,0,0,0,0,0,0,0,0,0,0,0,0,0,0],"split_type":[0,0,0,0,0,0,0,0,0,0,0,0,0,0,0,0,0,0,0,0,0,0,0,0,0,0,0,0,0,0,0,0,0,0,0,0,0,0,0,0,0,0,0,0,0,0,0,0,0,0,0,0,0,0,0,0,0,0,0,0,0,0,0,0,0,0,0,0,0,0,0,0,0,0,0,0,0,0,0,0,0,0,0,0,0,0,0,0,0,0,0,0,0],"sum_hessian":[1.4139226E6,7.052137E5,7.0870894E5,6.240161E5,8.119759E4,6.7632894E5,3.2380008E4,2.3205545E5,3.9196066E5,3.2910098E4,4.8287492E4,1.2538182E5,5.509471E5,2.5384094E4,6.9959136E3,6.3246258E4,1.688092E5,5.488127E3,3.8647253E5,3.281549E4,9.4610825E1,3.7999814E3,4.448751E4,9.717226E4,2.8209566E4,1.3133339E5,4.1961372E5,8.89202E3,1.6492074E4,2.184514E4,4.1401117E4,2.6527879E4,1.4228133E5,2.3358237E3,3.1523032E3,3.7115612E5,1.5316394E4,3.2427696E1,3.2783062E4,1.7747142E3,2.0252672E3,3.8487086E4,6.000424E3,5.2861535E4,4.4310723E4,2.7771527E4,4.3803983E2,1.2574704E5,5.5863457E3,7.659794E4,3.4301578E5,1.4326586E3,7.4593613E3,6.8175356E3,9.674538E3,1.6675037E4,5.1701045E3,3.127669E4,1.0124427E4,5.299212E3,2.1228668E4,8.011986E2,1.4148012E5,2.431037E3,7.212661E2,3.566523E5,1.4503816E4,1.3591987E4,1.7244059E3,3.2465076E4,3.1798444E2,1.7016843E3,7.302998E1,1.5611108E3,4.6415643E2,1.4989528E3,4.501471E3,5.221775E4,6.4378564E2,4.3937918E4,3.7280142E2,3.1971503E2,1.1832479E2,7.316131E4,5.2585727E4,7.5605695E4,9.9224335E2,4.3901855E4,2.991139E5,2.9240957E3,3.8934397E3,6.829437E3,2.845101E3],"tree_param":{"num_deleted":"0","num_feature":"12","num_nodes":"93","size_leaf_vector":"1"}},{"base_weights":[-4.59629E-3,-1.6442624E0,1.1664413E0,-1.6606681E0,8.143854E-2,1.6879243E0,-1.5872308E0,-1.3905314E0,-1.6733983E0,-1.6824545E-1,1.6998535E0,1.6890271E0,-1.7506315E-1,-1.7024208E0,1.6822396E-1,-1.7080694E-1,-1.118662E0,-1.6009407E0,-1.682754E0,-1.6205572E-1,1.7131833E0,1.9795338E0,1.6886058E0,-1.6868433E0,-1.7486373E0,-5.249773E-1,-1.5599451E0,-1.6559619E0,-1.2504647E0,-1.6654636E0,-1.6948968E0,1.972661E-1,1.678741E-1,1.992338E-1,-1.2977906E-1,-1.4218572E-1,1.6886313E0,-1.722854E0,-1.6832617E-1,-1.8723998E0,-1.7276655E0,1.18856214E-1,-1.2013602E-1,1.4188556E-1,-1.710528E-1,-1.5928906E-1,-1.707974E-1,-1.5171438E-1,3.8970814E-3,-1.5843485E-1,-1.6707388E-1,-1.7126337E-1,-1.6830435E-1,1.682071E-1,1.6950296E-1,-1.8500775E-1,-1.692019E-1,-1.9775906E-1,-1.6793516E-1,-1.6818474E-1,-1.781425E-1],"categories":[],"categories_nodes":[],"categories_segments":[],"categories_sizes":[],"default_left":[0,0,0,0,0,0,0,0,0,0,0,0,0,0,0,0,0,0,0,0,0,0,0,0,0,0,0,0,0,0,0,0,0,0,0,0,0,0,0,0,0,0,0,0,0,0,0,0,0,0,0,0,0,0,0,0,0,0,0,0,0],"id":2,"left_children":[1,3,5,7,9,11,13,15,17,-1,19,21,-1,23,-1,-1,25,27,29,-1,31,33,35,37,39,41,43,45,47,49,51,-1,-1,-1,-1,-1,53,55,-1,57,59,-1,-1,-1,-1,-1,-1,-1,-1,-1,-1,-1,-1,-1,-1,-1,-1,-1,-1,-1,-1],"loss_changes":[2.6346105E6,1.6184875E4,1.1494338E6,1.945125E3,1.5373874E4,2.55525E3,4.8001906E4,2.1987148E3,3.63875E2,0E0,1.2708154E2,7.8875E1,0E0,8.565625E1,0E0,0E0,3.5978008E3,1.190875E3,9.7875E1,0E0,2.1692383E1,4.3232666E1,5.6E1,8.984375E0,7.724219E1,6.7911445E3,3.536545E3,1.7267188E2,2.887915E3,8.1875E1,5.63125E1,0E0,0E0,0E0,0E0,0E0,2.5375E1,2.9388672E1,0E0,8.767676E1,6.234375E1,0E0,0E0,0E0,0E0,0E0,0E0,0E0,0E0,0E0,0E0,0E0,0E0,0E0,0E0,0E0,0E0,0E0,0E0,0E0,0E0],"parents":[2147483647,0,0,1,1,2,2,3,3,4,4,5,5,6,6,7,7,8,8,10,10,11,11,13,13,16,16,17,17,18,18,20,20,21,21,22,22,23,23,24,24,25,25,26,26,27,27,28,28,29,29,30,30,36,36,37,37,39,39,40,40],"right_children":[2,4,6,8,10,12,14,16,18,-1,20,22,-1,24,-1,-1,26,28,30,-1,32,34,36,38,40,42,44,46,48,50,52,-1,-1,-1,-1,-1,54,56,-1,58,60,-1,-1,-1,-1,-1,-1,-1,-1,-1,-1,-1,-1,-1,-1,-1,-1,-1,-1,-1,-1],"split_conditions":[0E0,9.6803225E5,4.1786E2,1.4E1,0E0,4.5474735E-13,2.7489755E6,1.2229165E5,3.9E1,-1.6824545E-1,6.5667E5,1.2E2,-1.7506315E-1,2.00192E4,1.6822396E-1,-1.7080694E-1,5E1,3.7E1,5E1,-1.6205572E-1,1.4395741E6,2.910383E-11,1.39E2,1.0000001E-2,5.816706E4,4.5888656E5,1.2425855E5,9.576765E4,4.038979E5,9.3E1,1.4719E2,1.972661E-1,1.678741E-1,1.992338E-1,-1.2977906E-1,-1.4218572E-1,4.82391E3,1.9918E4,-1.6832617E-1,4.5474735E-13,5.854063E4,1.18856214E-1,-1.2013602E-1,1.4188556E-1,-1.710528E-1,-1.5928906E-1,-1.707974E-1,-1.5171438E-1,3.8970814E-3,-1.5843485E-1,-1.6707388E-1,-1.7126337E-1,-1.6830435E-1,1.682071E-1,1.6950296E-1,-1.8500775E-1,-1.692019E-1,-1.9775906E-1,-1.6793516E-1,-1.6818474E-1,-1.781425E-1],"split_indices":[8,9,3,0,7,8,1,1,0,0,2,2,0,1,0,0,2,0,2,0,1,9,2,9,2,5,1,1,1,0,9,0,0,0,0,0,5,2,0,8,1,0,0,0,0,0,0,0,0,0,0,0,0,0,0,0,0,0,0,0,0],"split_type":[0,0,0,0,0,0,0,0,0,0,0,0,0,0,0,0,0,0,0,0,0,0,0,0,0,0,0,0,0,0,0,0,0,0,0,0,0,0,0,0,0,0,0,0,0,0,0,0,0,0,0,0,0,0,0,0,0,0,0,0,0],"sum_hessian":[1.372112E6,5.7166975E5,8.004423E5,5.662863E5,5.3834385E3,6.7299306E5,1.2744921E5,2.5490238E4,5.4079606E5,2.5759255E3,2.807513E3,6.727778E5,2.152818E2,1.231122E5,4.337008E3,1.1755161E4,1.3735078E4,6.1862402E4,4.7893366E5,1.0743578E1,2.7967693E3,9.676414E2,6.718102E5,9.210516E4,3.1007047E4,5.8572095E3,7.877868E3,5.346519E4,8.39721E3,1.976417E5,2.8129194E5,3.2113873E2,2.4756306E3,9.6426624E2,3.3751776E0,5.0760694E0,6.7180506E5,8.288619E3,8.381654E4,4.4800923E3,2.6526955E4,1.6574614E3,4.199748E3,3.7867004E2,7.499198E3,2.4177992E4,2.92872E4,6.9579917E3,1.4392188E3,1.2086791E4,1.855549E5,1.1262305E5,1.6866889E5,3.3183138E5,3.3997372E5,1.6054913E3,6.683128E3,2.8939514E3,1.5861407E3,1.4338667E4,1.2188288E4],"tree_param":{"num_deleted":"0","num_feature":"12","num_nodes":"61","size_leaf_vector":"1"}},{"base_weights":[-5.579303E-3,-1.5408605E0,1.0916884E0,-1.5511419E0,-2.3916426E-1,1.5805272E0,-1.470161E0,-1.3030977E0,-1.5679507E0,-1.5766469E-1,1.5985602E0,1.5815345E0,-1.6289414E-1,-1.5926163E0,1.5744317E0,-1.0206937E0,-1.5384856E0,-1.5475957E0,-1.5891405E0,-1.4992377E-1,1.6160468E0,1.7974973E0,1.581213E0,-1.5861547E0,-1.6505302E0,-1.2669241E-1,1.5767942E-1,2.4096707E-2,-1.2410449E0,-9.0386075E-1,-1.5981067E0,-1.5522482E0,-8.8470155E-1,-1.5775433E-1,-1.6065295E0,1.7979054E-1,1.5761444E-1,-1.0122205E-1,1.8020912E-1,-1.4043163E-1,1.5812435E0,-1.5817246E0,-1.6173767E0,-1.6887534E0,-1.565962E-1,1.4270888E-1,-4.942883E-2,-1.6089207E-1,-9.16442E-2,-1.5762855E-1,1.7862879E-1,-1.6165979E-1,-1.5844454E-1,-1.5807025E-1,-1.5265825E-1,1.794704E-1,-1.5871552E-1,-1.58585E-1,-1.6660835E-1,1.514748E-1,1.5825763E-1,-1.60933E-1,-1.5775149E-1,-1.7230251E-1,-1.5829884E-1,-1.7866553E-1,-1.6280282E-1],"categories":[],"categories_nodes":[],"categories_segments":[],"categories_sizes":[],"default_left":[0,0,0,0,0,0,0,0,0,0,0,0,0,0,0,0,0,0,0,0,0,0,0,0,0,0,0,0,0,0,0,0,0,0,0,0,0,0,0,0,0,0,0,0,0,0,0,0,0,0,0,0,0,0,0,0,0,0,0,0,0,0,0,0,0,0,0],"id":3,"left_children":[1,3,5,7,9,11,13,15,17,-1,19,21,-1,23,25,27,29,31,33,-1,35,37,39,41,43,-1,-1,45,47,49,51,53,55,-1,57,-1,-1,-1,-1,-1,59,61,63,65,-1,-1,-1,-1,-1,-1,-1,-1,-1,-1,-1,-1,-1,-1,-1,-1,-1,-1,-1,-1,-1,-1,-1],"loss_changes":[2.2254712E6,7.3685E3,9.648353E5,2.275875E3,1.0611268E4,2.094375E3,4.6029156E4,2.3036094E3,2.1825E2,0E0,1.0093506E2,4.2E1,0E0,4.18125E1,3.404297E1,3.6300156E3,7.1410156E2,8.035625E2,4.8E1,0E0,1.0291992E1,1.4140381E1,6.1E1,1.21875E1,3.5783203E1,0E0,0E0,1.9987224E3,1.5534336E3,2.9448103E3,1.8085938E0,1.86875E2,3.4308801E3,0E0,1.2078125E2,0E0,0E0,0E0,0E0,0E0,5.4875E1,8.34375E0,4.5320312E1,4.5689453E1,0E0,0E0,0E0,0E0,0E0,0E0,0E0,0E0,0E0,0E0,0E0,0E0,0E0,0E0,0E0,0E0,0E0,0E0,0E0,0E0,0E0,0E0,0E0],"parents":[2147483647,0,0,1,1,2,2,3,3,4,4,5,5,6,6,7,7,8,8,10,10,11,11,13,13,14,14,15,15,16,16,17,17,18,18,20,20,21,21,22,22,23,23,24,24,27,27,28,28,29,29,30,30,31,31,32,32,34,34,40,40,41,41,42,42,43,43],"right_children":[2,4,6,8,10,12,14,16,18,-1,20,22,-1,24,26,28,30,32,34,-1,36,38,40,42,44,-1,-1,46,48,50,52,54,56,-1,58,-1,-1,-1,-1,-1,60,62,64,66,-1,-1,-1,-1,-1,-1,-1,-1,-1,-1,-1,-1,-1,-1,-1,-1,-1,-1,-1,-1,-1,-1,-1],"split_conditions":[0E0,9.6803225E5,4.1786E2,1.6E1,0E0,4.5474735E-13,9.6803225E5,5E1,4.654E3,-1.5766469E-1,2.5227544E5,1E2,-1.6289414E-1,5.670634E4,1.7E1,-4.1041328E5,-2.6466203E5,4.171E3,4.85723E3,-1.4992377E-1,1.4074729E6,2.4E2,1.39E2,2.01016E4,4.5474735E-13,-1.2669241E-1,1.5767942E-1,9.7872694E5,3.845089E4,3E0,1.4719E2,3.845089E4,3.3E1,-1.5775433E-1,-6.328838E4,1.7979054E-1,1.5761444E-1,-1.0122205E-1,1.8020912E-1,-1.4043163E-1,7.088E3,3E0,5.816706E4,2.3508612E5,-1.565962E-1,1.4270888E-1,-4.942883E-2,-1.6089207E-1,-9.16442E-2,-1.5762855E-1,1.7862879E-1,-1.6165979E-1,-1.5844454E-1,-1.5807025E-1,-1.5265825E-1,1.794704E-1,-1.5871552E-1,-1.58585E-1,-1.6660835E-1,1.514748E-1,1.5825763E-1,-1.60933E-1,-1.5775149E-1,-1.7230251E-1,-1.5829884E-1,-1.7866553E-1,-1.6280282E-1],"split_indices":[8,9,3,0,7,8,9,2,2,0,2,2,0,7,0,8,7,2,7,0,2,0,2,9,8,0,0,5,7,11,9,7,0,0,8,0,0,0,0,0,2,11,2,2,0,0,0,0,0,0,0,0,0,0,0,0,0,0,0,0,0,0,0,0,0,0,0],"split_type":[0,0,0,0,0,0,0,0,0,0,0,0,0,0,0,0,0,0,0,0,0,0,0,0,0,0,0,0,0,0,0,0,0,0,0,0,0,0,0,0,0,0,0,0,0,0,0,0,0,0,0,0,0,0,0,0,0,0,0,0,0,0,0,0,0,0,0],"sum_hessian":[1.3210545E6,5.50626E5,7.7042844E5,5.463109E5,4.3151406E3,6.469762E5,1.2345224E5,3.4676637E4,5.1163425E5,2.4975696E3,1.8175709E3,6.467737E5,2.0249318E2,1.1867937E5,4.7728804E3,1.5766402E4,1.8910234E4,2.6099519E5,2.5063905E5,9.726707E0,1.8078442E3,9.531865E2,6.458205E5,1.06792484E5,1.1886884E4,3.5204842E0,4.76936E3,2.746208E3,1.3020194E4,1.6253796E3,1.7284854E4,2.5917486E5,1.8203303E3,1.5041508E5,1.0022398E5,3.173659E2,1.4904784E3,1.1978492E0,9.5198865E2,6.1306424E0,6.458144E5,9.3567875E4,1.3224604E4,8.1736187E3,3.7132654E3,7.4045044E2,2.0057577E3,6.101428E3,6.9187656E3,1.3006785E3,3.247012E2,7.294389E3,9.990465E3,1.2288176E5,1.362931E5,3.7778192E2,1.4425485E3,7.441252E4,2.5811451E4,1.2712261E4,6.331021E5,1.2330343E4,8.123753E4,3.2354656E3,9.989138E3,3.1181196E3,5.055499E3],"tree_param":{"num_deleted":"0","num_feature":"12","num_nodes":"67","size_leaf_vector":"1"}},{"base_weights":[6.3564386E-3,-1.1714482E0,1.1878492E0,-1.30971E0,-1.4455022E-1,1.2870725E0,-8.539445E-1,7.5878257E-1,-1.3316268E0,1.4851905E0,-1.3456862E0,6.774277E-1,1.4258976E0,-1.5244274E0,1.4927372E-1,1.2224305E0,-1.497502E-1,-1.0694902E0,-1.4845843E0,-1.5042123E-1,1.4891421E0,2.670849E-2,-1.4670684E0,1.2981945E0,-1.4966986E0,1.2466307E0,1.471996E0,-1.4964074E-1,-1.5392592E0,1.406318E0,-1.5164554E-1,-8.6725876E-2,-1.4203748E0,-6.9128203E-1,-1.4897546E0,-1.4966346E-1,1.4917663E0,1.4364182E0,-6.7372453E-1,-1.4974296E-1,-1.2728101E0,1.1351355E0,1.476864E0,-1.6630463E-1,-1.4920513E-1,1.4074523E0,-1.524363E0,1.3862356E0,1.4818894E0,-1.5741929E0,-1.5138489E0,1.4415753E-1,-1.5241891E-1,2.9650882E-2,-1.5189934E-1,-9.308952E-2,-1.4540438E-1,-1.4982514E-1,1.2859582E-2,-1.10929124E-1,-1.4925317E-1,1.4964007E-1,1.2676051E-1,1.484141E-1,-1.43116E-1,-1.5791957E-1,4.3254476E-2,-6.325239E-2,-1.4949495E-1,1.1682689E-1,-1.492392E-1,1.498407E-1,-1.4834851E-1,1.4915168E-1,1.3005474E-1,-1.6776805E-1,-1.4925735E-1,1.4748986E-1,-1.5407328E-1,1.4544283E-1,1.4896822E-1,-1.5175281E-1,-1.6129385E-1,-1.4864028E-1,-1.5767477E-1],"categories":[],"categories_nodes":[],"categories_segments":[],"categories_sizes":[],"default_left":[0,0,0,0,0,0,0,0,0,0,0,0,0,0,0,0,0,0,0,0,0,0,0,0,0,0,0,0,0,0,0,0,0,0,0,0,0,0,0,0,0,0,0,0,0,0,0,0,0,0,0,0,0,0,0,0,0,0,0,0,0,0,0,0,0,0,0,0,0,0,0,0,0,0,0,0,0,0,0,0,0,0,0,0,0],"id":4,"left_children":[1,3,5,7,9,11,13,15,17,19,21,23,25,27,-1,29,-1,31,33,-1,35,37,39,41,43,45,47,-1,49,51,-1,53,55,57,59,-1,61,63,65,-1,67,69,71,-1,-1,73,75,77,79,81,83,-1,-1,-1,-1,-1,-1,-1,-1,-1,-1,-1,-1,-1,-1,-1,-1,-1,-1,-1,-1,-1,-1,-1,-1,-1,-1,-1,-1,-1,-1,-1,-1,-1,-1],"loss_changes":[1.7688956E6,9.03805E4,1.2856369E5,2.5435188E4,1.4787208E5,5.1217375E4,4.627589E4,6.1558936E3,2.2257562E4,3.8085938E2,7.244508E3,1.5149562E5,4.071625E3,7.2070312E0,0E0,2.4601816E3,0E0,7.054331E4,1.4369375E3,0E0,2.5303906E2,3.4912341E3,2.3374219E2,2.5422031E3,1.6792969E1,4.493761E4,3.30625E2,0E0,1.0863281E1,4.7478906E2,0E0,2.9544031E4,2.483E3,1.5033408E3,3.664375E2,0E0,3.1320312E1,1.6273608E2,2.3668252E3,0E0,7.681367E2,3.9766445E3,2.6591719E3,0E0,0E0,8.5453125E2,2.4457031E1,1.0530539E4,7.3E1,1.1292969E1,1.26171875E1,0E0,0E0,0E0,0E0,0E0,0E0,0E0,0E0,0E0,0E0,0E0,0E0,0E0,0E0,0E0,0E0,0E0,0E0,0E0,0E0,0E0,0E0,0E0,0E0,0E0,0E0,0E0,0E0,0E0,0E0,0E0,0E0,0E0,0E0],"parents":[2147483647,0,0,1,1,2,2,3,3,4,4,5,5,6,6,7,7,8,8,9,9,10,10,11,11,12,12,13,13,15,15,17,17,18,18,20,20,21,21,22,22,23,23,24,24,25,25,26,26,28,28,29,29,31,31,32,32,33,33,34,34,36,36,37,37,38,38,40,40,41,41,42,42,45,45,46,46,47,47,48,48,49,49,50,50],"right_children":[2,4,6,8,10,12,14,16,18,20,22,24,26,28,-1,30,-1,32,34,-1,36,38,40,42,44,46,48,-1,50,52,-1,54,56,58,60,-1,62,64,66,-1,68,70,72,-1,-1,74,76,78,80,82,84,-1,-1,-1,-1,-1,-1,-1,-1,-1,-1,-1,-1,-1,-1,-1,-1,-1,-1,-1,-1,-1,-1,-1,-1,-1,-1,-1,-1,-1,-1,-1,-1,-1,-1],"split_conditions":[3.3216E4,4E0,4.1786E2,8E0,4.82391E3,1.0840435E5,2.7489755E6,2E0,1.0000001E-2,5E1,1.4E1,1.0870651E5,2.3508612E5,5.854063E4,1.4927372E-1,4.1786E2,-1.497502E-1,3.312912E4,9E0,-1.5042123E-1,2.910383E-11,1.393611E4,1E-2,4E0,1.1445757E5,2.3559155E5,3.1745803E5,-1.4964074E-1,2.3508612E5,1.0074707E5,-1.5164554E-1,4.1786E2,1.6E1,2.940027E4,1.7457E2,-1.4966346E-1,3.386691E4,-6.908142E4,4.656613E-10,-1.4974296E-1,9.3E1,2E0,4.82391E3,-1.6630463E-1,-1.4920513E-1,1.34035E5,2.696547E5,3.1686584E5,5.3278594E5,3.232372E4,2.3256995E5,1.4415753E-1,-1.5241891E-1,2.9650882E-2,-1.5189934E-1,-9.308952E-2,-1.4540438E-1,-1.4982514E-1,1.2859582E-2,-1.10929124E-1,-1.4925317E-1,1.4964007E-1,1.2676051E-1,1.484141E-1,-1.43116E-1,-1.5791957E-1,4.3254476E-2,-6.325239E-2,-1.4949495E-1,1.1682689E-1,-1.492392E-1,1.498407E-1,-1.4834851E-1,1.4915168E-1,1.3005474E-1,-1.6776805E-1,-1.4925735E-1,1.4748986E-1,-1.5407328E-1,1.4544283E-1,1.4896822E-1,-1.5175281E-1,-1.6129385E-1,-1.4864028E-1,-1.5767477E-1],"split_indices":[6,11,3,0,5,6,1,11,9,2,0,1,2,1,0,3,0,1,0,0,9,1,9,11,1,1,6,0,2,9,0,3,0,1,1,0,9,9,9,0,0,11,5,0,0,5,1,1,2,3,1,0,0,0,0,0,0,0,0,0,0,0,0,0,0,0,0,0,0,0,0,0,0,0,0,0,0,0,0,0,0,0,0,0,0],"split_type":[0,0,0,0,0,0,0,0,0,0,0,0,0,0,0,0,0,0,0,0,0,0,0,0,0,0,0,0,0,0,0,0,0,0,0,0,0,0,0,0,0,0,0,0,0,0,0,0,0,0,0,0,0,0,0,0,0,0,0,0,0,0,0,0,0,0,0,0,0,0,0,0,0,0,0,0,0,0,0,0,0,0,0,0,0],"sum_hessian":[1.2711512E6,6.365691E5,6.3458206E5,5.6103144E5,7.553772E4,6.051733E5,2.9408764E4,5.8817417E3,5.551497E5,3.205042E4,4.3487297E4,1.12247664E5,4.9292566E5,2.2873736E4,6.535027E3,4.879502E3,1.0022393E3,2.045694E5,3.5058028E5,4.1809055E1,3.200861E4,3.5337793E3,3.9953516E4,8.731692E4,2.493074E4,1.00833555E5,3.920921E5,7.95225E3,1.4921485E4,4.5729624E3,3.0653995E2,5.3822773E4,1.5074664E5,2.270933E3,3.4830934E5,2.760862E1,3.1981002E4,1.172641E3,2.3611384E3,3.4547305E4,5.406212E3,4.5656652E4,4.166027E4,6.678832E2,2.4262855E4,9.53029E4,5.530652E3,4.0568227E4,3.5152388E5,6.2576216E3,8.663864E3,4.5191E3,5.386193E1,4.246194E4,1.1360834E4,9.70366E3,1.4104297E5,1.1440591E3,1.126874E3,2.5268647E3,3.4578247E5,3.1327672E4,6.533301E2,1.1539196E3,1.8721348E1,1.2981704E3,1.0629679E3,1.3934971E3,4.012715E3,4.5088637E4,5.680171E2,4.135978E4,3.0049042E2,5.3343426E4,4.1959473E4,9.4092267E2,4.589729E3,3.9375957E4,1.1922701E3,7.77461E4,2.7377778E5,2.557488E3,3.7001335E3,6.04899E3,2.6148738E3],"tree_param":{"num_deleted":"0","num_feature":"12","num_nodes":"85","size_leaf_vector":"1"}},{"base_weights":[5.9266295E-3,-1.4016187E0,9.973705E-1,-1.4107858E0,1.4237836E-1,-3.8313383E-1,1.3327576E0,-1.4141612E0,-1.0884416E0,5.205002E-1,-1.4296746E0,1.3595843E0,-7.7828246E-1,-1.3799387E0,-1.4381624E0,-1.2252283E0,1.4121935E-1,1.3435283E0,4.3094106E-2,-1.4251332E-1,-1.4627588E0,1.0631576E0,1.3927301E0,-1.4196919E-1,1.4236264E-1,-6.488265E-1,-1.3845615E0,-1.4333025E0,-1.5459328E0,-1.4407517E0,-5.1033586E-1,1.372996E0,-1.430623E-1,-1.4336157E0,1.4160154E0,-1.5500932E0,-1.4228912E-1,1.3840886E0,-1.4421047E0,1.3281186E0,1.4175947E0,1.842256E-1,-1.4921612E-1,-1.3221528E-1,-1.4231318E-1,-1.4367329E-1,-1.3322584E-1,-1.6270614E-1,-1.4819136E-1,-1.4327624E-1,-1.7910197E-1,1.4634657E-1,-1.4701116E-1,1.582786E-1,1.3128377E-1,-1.6888085E-1,-1.430559E-1,1.4246817E-1,-1.4192705E-1,-1.5844789E-1,-1.4156383E-1,1.2519525E-1,1.423765E-1,-1.4228413E-1,-1.5326065E-1,1.3936032E-1,-1.4244352E-1,1.3821924E-1,1.4214228E-1],"categories":[],"categories_nodes":[],"categories_segments":[],"categories_sizes":[],"default_left":[0,0,0,0,0,0,0,0,0,0,0,0,0,0,0,0,0,0,0,0,0,0,0,0,0,0,0,0,0,0,0,0,0,0,0,0,0,0,0,0,0,0,0,0,0,0,0,0,0,0,0,0,0,0,0,0,0,0,0,0,0,0,0,0,0,0,0,0,0],"id":5,"left_children":[1,3,5,7,-1,9,11,13,15,17,19,21,23,25,27,29,-1,31,33,-1,35,37,39,-1,-1,41,43,45,47,49,51,53,-1,55,57,59,-1,61,63,65,67,-1,-1,-1,-1,-1,-1,-1,-1,-1,-1,-1,-1,-1,-1,-1,-1,-1,-1,-1,-1,-1,-1,-1,-1,-1,-1,-1,-1],"loss_changes":[1.6844469E6,1.29225E4,3.2790325E5,5.394375E2,0E0,1.3090946E5,3.2269062E4,4.0225E2,1.7657617E3,2.918828E4,7.546875E0,5.5265625E3,1.0100825E4,6.8478125E2,1.4925E2,7.527334E2,0E0,2.2313281E3,9.532188E4,0E0,2.4621094E1,4.5500777E4,8.11125E2,0E0,0E0,2.6846018E3,4.83375E2,9.39375E1,6.233789E1,7.9467773E0,2.1510408E3,3.384922E2,0E0,1.5253906E1,6.006875E2,8.869141E0,0E0,2.6120312E2,9.0234375E0,2.5352453E4,4.75625E1,0E0,0E0,0E0,0E0,0E0,0E0,0E0,0E0,0E0,0E0,0E0,0E0,0E0,0E0,0E0,0E0,0E0,0E0,0E0,0E0,0E0,0E0,0E0,0E0,0E0,0E0,0E0,0E0],"parents":[2147483647,0,0,1,1,2,2,3,3,5,5,6,6,7,7,8,8,9,9,10,10,11,11,12,12,13,13,14,14,15,15,17,17,18,18,20,20,21,21,22,22,25,25,26,26,27,27,28,28,29,29,30,30,31,31,33,33,34,34,35,35,37,37,38,38,39,39,40,40],"right_children":[2,4,6,8,-1,10,12,14,16,18,20,22,24,26,28,30,-1,32,34,-1,36,38,40,-1,-1,42,44,46,48,50,52,54,-1,56,58,60,-1,62,64,66,68,-1,-1,-1,-1,-1,-1,-1,-1,-1,-1,-1,-1,-1,-1,-1,-1,-1,-1,-1,-1,-1,-1,-1,-1,-1,-1,-1,-1],"split_conditions":[0E0,1E7,2.855359E4,1.8394249E6,1.4237836E-1,2.8991E4,4.5474735E-13,5E1,4.113165E6,2E0,2.00192E4,7.035523E4,2.7489755E6,-1.0005179E6,1.0840435E5,4.656613E-10,1.4121935E-1,4.5474735E-13,4E0,-1.4251332E-1,5.816706E4,7.1107E4,2.41907E5,-1.4196919E-1,1.4236264E-1,1.96582E3,4.537246E4,7.325287E4,2.696547E5,4.312083E5,9.313226E-10,3.305E3,-1.430623E-1,1.116E3,1.96582E3,4.5474735E-13,-1.4228912E-1,3.631877E4,5.854063E4,2.443152E5,3.2202525E5,1.842256E-1,-1.4921612E-1,-1.3221528E-1,-1.4231318E-1,-1.4367329E-1,-1.3322584E-1,-1.6270614E-1,-1.4819136E-1,-1.4327624E-1,-1.7910197E-1,1.4634657E-1,-1.4701116E-1,1.582786E-1,1.3128377E-1,-1.6888085E-1,-1.430559E-1,1.4246817E-1,-1.4192705E-1,-1.5844789E-1,-1.4156383E-1,1.2519525E-1,1.423765E-1,-1.4228413E-1,-1.5326065E-1,1.3936032E-1,-1.4244352E-1,1.3821924E-1,1.4214228E-1],"split_indices":[8,6,1,1,0,2,8,2,2,11,1,1,1,9,6,9,0,8,11,0,2,2,1,0,0,4,4,6,1,2,9,2,0,2,4,8,0,1,1,2,1,0,0,0,0,0,0,0,0,0,0,0,0,0,0,0,0,0,0,0,0,0,0,0,0,0,0,0,0],"split_type":[0,0,0,0,0,0,0,0,0,0,0,0,0,0,0,0,0,0,0,0,0,0,0,0,0,0,0,0,0,0,0,0,0,0,0,0,0,0,0,0,0,0,0,0,0,0,0,0,0,0,0,0,0,0,0,0,0,0,0,0,0,0,0,0,0,0,0,0,0],"sum_hessian":[1.2070521E6,4.9884512E5,7.0820706E5,4.9723234E5,1.6127808E3,1.3842569E5,5.697814E5,4.9207616E5,5.1561777E3,7.428496E4,6.414073E4,5.626319E5,7.1494814E3,2.028695E5,2.8920666E5,4.889242E3,2.669353E2,2.7270297E4,4.701466E4,5.6437598E4,7.703133E3,5.658837E4,5.0604353E5,5.536942E3,1.6125393E3,1.2755767E3,2.0159392E5,2.7674128E5,1.2465396E4,3.7559087E3,1.1333336E3,2.698417E4,2.8612683E2,2.2651133E4,2.436353E4,2.4024434E3,5.3006895E3,5.016282E4,6.425549E3,1.4063984E5,3.654037E5,3.2231696E2,9.5325977E2,7.70149E4,1.2457902E5,2.676422E5,9.099099E3,5.4872466E3,6.97815E3,3.6771274E3,7.878135E1,3.7062003E2,7.6271356E2,6.007813E3,2.0976357E4,2.6157678E2,2.2389555E4,2.4289783E4,7.3745605E1,1.9045792E3,4.9786414E2,1.1591528E4,3.8571293E4,5.3116714E3,1.1138776E3,1.3737219E5,3.2676558E3,3.569222E4,3.2971147E5],"tree_param":{"num_deleted":"0","num_feature":"12","num_nodes":"69","size_leaf_vector":"1"}},{"base_weights":[-5.0479798E-3,-1.3341874E0,9.477263E-1,-1.342913E0,1.3674085E-1,1.3738029E0,-1.2939464E0,-6.381754E-1,-1.3486718E0,1.3747504E0,-1.443294E0,-1.3868017E0,1.3678972E-1,-1.4155536E0,1.475392E-1,-1.1897199E0,-1.3582834E0,1.3838708E0,1.3656619E0,-1.6088004E-1,-1.3566391E-1,-1.3777028E0,-1.4660015E0,-1.4503099E-1,-1.3771205E-1,1.393342E0,-1.4407845E-1,4.1296443E-1,-1.2230865E0,-1.3414328E0,-1.3932838E0,1.4473541E0,1.3763064E0,-1.7175667E-1,1.3704163E0,-1.4183936E0,-1.3729475E0,-1.513755E0,-1.3596189E-1,1.705133E-1,-1.4256193E-1,1.2867017E-1,-1.5174271E-1,-1.3012105E-1,-8.7099634E-2,-1.345306E-1,-8.69967E-2,-1.3717298E-1,-1.4627734E-1,1.6070646E-1,1.4386056E-1,1.391238E-1,1.3689739E-1,1.3704439E-1,-1.2440141E-1,-1.5217583E-1,-1.3744543E-1,-1.3687983E-1,-1.4001153E-1,-1.6096328E-1,-1.4428394E-1],"categories":[],"categories_nodes":[],"categories_segments":[],"categories_sizes":[],"default_left":[0,0,0,0,0,0,0,0,0,0,0,0,0,0,0,0,0,0,0,0,0,0,0,0,0,0,0,0,0,0,0,0,0,0,0,0,0,0,0,0,0,0,0,0,0,0,0,0,0,0,0,0,0,0,0,0,0,0,0,0,0],"id":6,"left_children":[1,3,5,7,-1,9,11,13,15,17,19,21,-1,23,25,27,29,31,33,-1,-1,35,37,-1,-1,39,-1,41,43,45,47,49,51,-1,53,55,57,59,-1,-1,-1,-1,-1,-1,-1,-1,-1,-1,-1,-1,-1,-1,-1,-1,-1,-1,-1,-1,-1,-1,-1],"loss_changes":[1.4290034E6,1.11085E4,6.2777656E5,1.9051875E3,0E0,1.4763125E3,2.5948375E4,2.3263813E3,7.100625E2,4.3875E1,4.8776245E-1,7.1078125E1,0E0,5.5981445E-1,3.7516357E3,1.4213672E3,2.571875E2,1.303125E2,4.0571875E3,0E0,0E0,1.5671875E1,5.0966797E1,0E0,0E0,9.3628784E2,0E0,9.171845E2,7.148203E2,5.403125E2,2.1175E2,3.8640625E1,2.50625E1,0E0,2.1625E1,4.101953E1,7.28125E0,4.6595703E1,0E0,0E0,0E0,0E0,0E0,0E0,0E0,0E0,0E0,0E0,0E0,0E0,0E0,0E0,0E0,0E0,0E0,0E0,0E0,0E0,0E0,0E0,0E0],"parents":[2147483647,0,0,1,1,2,2,3,3,5,5,6,6,7,7,8,8,9,9,10,10,11,11,13,13,14,14,15,15,16,16,17,17,18,18,21,21,22,22,25,25,27,27,28,28,29,29,30,30,31,31,32,32,34,34,35,35,36,36,37,37],"right_children":[2,4,6,8,-1,10,12,14,16,18,20,22,-1,24,26,28,30,32,34,-1,-1,36,38,-1,-1,40,-1,42,44,46,48,50,52,-1,54,56,58,60,-1,-1,-1,-1,-1,-1,-1,-1,-1,-1,-1,-1,-1,-1,-1,-1,-1,-1,-1,-1,-1,-1,-1],"split_conditions":[0E0,1E7,4.1786E2,9E0,1.3674085E-1,4.5474735E-13,1E7,1.7065131E5,1.6E1,2E0,3E0,5.8285E4,1.3678972E-1,3E0,1.144763E4,-1.7794801E6,-4.05848E4,3.3216E4,4E0,-1.6088004E-1,-1.3566391E-1,2E0,4.5474735E-13,-1.4503099E-1,-1.3771205E-1,5E0,-1.4407845E-1,2.0711875E6,1.5E1,-4.245601E4,9.2414E2,2.31E2,2.4529205E5,-1.7175667E-1,1.96582E3,2.259811E4,2.0013E4,1.3237402E5,-1.3596189E-1,1.705133E-1,-1.4256193E-1,1.2867017E-1,-1.5174271E-1,-1.3012105E-1,-8.7099634E-2,-1.345306E-1,-8.69967E-2,-1.3717298E-1,-1.4627734E-1,1.6070646E-1,1.4386056E-1,1.391238E-1,1.3689739E-1,1.3704439E-1,-1.2440141E-1,-1.5217583E-1,-1.3744543E-1,-1.3687983E-1,-1.4001153E-1,-1.6096328E-1,-1.4428394E-1],"split_indices":[8,6,3,0,0,8,6,7,0,11,11,6,0,11,4,8,8,6,11,0,0,11,8,0,0,6,0,7,0,8,7,6,6,0,4,3,6,3,0,0,0,0,0,0,0,0,0,0,0,0,0,0,0,0,0,0,0,0,0,0,0],"split_type":[0,0,0,0,0,0,0,0,0,0,0,0,0,0,0,0,0,0,0,0,0,0,0,0,0,0,0,0,0,0,0,0,0,0,0,0,0,0,0,0,0,0,0,0,0,0,0,0,0,0,0,0,0,0,0,0,0,0,0,0,0],"sum_hessian":[1.128423E6,4.711537E5,6.572693E5,4.6963734E5,1.5163464E3,5.522946E5,1.0497471E5,3.807419E3,4.658299E5,5.5210944E5,1.8518848E2,1.0143669E5,3.5380242E3,1.9134596E3,1.8939594E3,2.656902E4,4.392609E5,2.7549516E5,2.7661428E5,5.7603424E1,1.2758505E2,9.100043E4,1.0436259E4,9.855006E2,9.2795905E2,1.0614966E3,8.324628E2,5.416315E2,2.6027387E4,2.965364E5,1.427245E5,2.9311695E4,2.4618345E5,4.2533066E2,2.7618894E5,9.490929E3,8.15095E4,7.1938325E3,3.242426E3,9.561381E2,1.0535847E2,3.730943E2,1.6853716E2,2.129878E4,4.7286074E3,2.941183E5,2.4181023E3,1.0895114E5,3.3773355E4,1.5127255E3,2.7798969E4,8.101689E4,1.6516656E5,2.761865E5,2.438598E0,2.821019E3,6.6699097E3,7.075479E4,1.075471E4,3.0493774E3,4.144455E3],"tree_param":{"num_deleted":"0","num_feature":"12","num_nodes":"61","size_leaf_vector":"1"}},{"base_weights":[-1.2517135E-3,-1.2928854E0,9.1782975E-1,-1.3050988E0,5.0304737E-2,1.3257262E0,-1.2597665E0,-1.043301E0,-1.3179178E0,1.4012581E0,-1.3227715E-1,1.3266135E0,-1.3800612E-1,-1.3368452E0,1.320405E-1,-1.3492807E0,-7.885521E-1,-1.2697535E0,-1.3276923E0,1.7675734E-1,1.3313855E0,1.5054746E0,1.3262179E0,-1.3292413E0,-1.4026217E0,-1.3863109E0,-1.33396E-1,2.0917988E-1,-1.2330531E0,-1.2863536E0,-7.476573E-1,-1.3177079E0,-1.3416425E0,-1.14371695E-1,1.3352144E0,1.4472558E0,1.6582383E-1,1.2004687E0,1.3269409E0,-1.3639417E0,-1.3251789E0,-1.4421383E0,-1.3137385E-1,-1.39998E-1,-1.3345668E-1,2.023661E-1,-1.3655347E-1,1.4861163E-1,-1.3760893E-1,-1.3200785E-1,-9.82689E-2,-1.3317706E-1,1.2897906E-1,-1.323785E-1,-1.21811084E-1,-1.3777436E-1,-1.3236965E-1,1.4094062E-1,1.3203079E-1,-1.1385804E-1,1.4566271E-1,1.3237846E-1,3.0250331E-2,1.3385676E-1,1.3232496E-1,-1.5694906E-1,-1.3428214E-1,-1.3216196E-1,-1.3483432E-1,-1.5405981E-1,-1.3827723E-1],"categories":[],"categories_nodes":[],"categories_segments":[],"categories_sizes":[],"default_left":[0,0,0,0,0,0,0,0,0,0,0,0,0,0,0,0,0,0,0,0,0,0,0,0,0,0,0,0,0,0,0,0,0,0,0,0,0,0,0,0,0,0,0,0,0,0,0,0,0,0,0,0,0,0,0,0,0,0,0,0,0,0,0,0,0,0,0,0,0,0,0],"id":7,"left_children":[1,3,5,7,9,11,13,15,17,19,-1,21,-1,23,-1,25,27,29,31,-1,33,35,37,39,41,43,-1,45,47,49,51,53,55,-1,57,59,-1,61,63,65,67,69,-1,-1,-1,-1,-1,-1,-1,-1,-1,-1,-1,-1,-1,-1,-1,-1,-1,-1,-1,-1,-1,-1,-1,-1,-1,-1,-1,-1,-1],"loss_changes":[1.2598281E6,7.237875E3,5.5074825E5,1.4659375E3,7.378276E3,1.255625E3,1.9456094E4,1.5902012E3,1.945625E2,4.8963867E1,0E0,3.5E1,0E0,4.565625E1,0E0,3.4121094E0,4.9417544E3,6.086875E2,4.65625E1,0E0,1.7522217E1,7.7817383E0,4.575E1,1.0203125E1,3.261133E1,3.2714844E-2,0E0,9.817341E3,3.0001113E3,6.968594E2,2.584203E3,1.2065625E2,9.175E1,0E0,3.4179688E-3,2.1936035E1,0E0,3.3049756E2,2.05E1,3.6490234E1,4.5E0,3.7561523E1,0E0,0E0,0E0,0E0,0E0,0E0,0E0,0E0,0E0,0E0,0E0,0E0,0E0,0E0,0E0,0E0,0E0,0E0,0E0,0E0,0E0,0E0,0E0,0E0,0E0,0E0,0E0,0E0,0E0],"parents":[2147483647,0,0,1,1,2,2,3,3,4,4,5,5,6,6,7,7,8,8,9,9,11,11,13,13,15,15,16,16,17,17,18,18,20,20,21,21,22,22,23,23,24,24,25,25,27,27,28,28,29,29,30,30,31,31,32,32,34,34,35,35,37,37,38,38,39,39,40,40,41,41],"right_children":[2,4,6,8,10,12,14,16,18,20,-1,22,-1,24,-1,26,28,30,32,-1,34,36,38,40,42,44,-1,46,48,50,52,54,56,-1,58,60,-1,62,64,66,68,70,-1,-1,-1,-1,-1,-1,-1,-1,-1,-1,-1,-1,-1,-1,-1,-1,-1,-1,-1,-1,-1,-1,-1,-1,-1,-1,-1,-1,-1],"split_conditions":[0E0,9.6803225E5,4.1786E2,1.4E1,1.96582E3,4.5474735E-13,2.7489755E6,1.2229165E5,9.3E1,1.4395741E6,-1.3227715E-1,1.2E2,-1.3800612E-1,5.854063E4,1.320405E-1,1.0000001E-2,4.537246E4,4.6E1,-7.940284E4,1.7675734E-1,6.5667E5,3.3719685E6,1.21299E3,2E0,4.5474735E-13,4.1786E2,-1.33396E-1,5E1,1.2425855E5,4.038979E5,4E0,-9.579355E4,1.0000001E-2,-1.14371695E-1,5.0943545E6,2.49E2,1.6582383E-1,1.63E2,1.13516E5,1.9918E4,2.00192E4,2.3508612E5,-1.3137385E-1,-1.39998E-1,-1.3345668E-1,2.023661E-1,-1.3655347E-1,1.4861163E-1,-1.3760893E-1,-1.3200785E-1,-9.82689E-2,-1.3317706E-1,1.2897906E-1,-1.323785E-1,-1.21811084E-1,-1.3777436E-1,-1.3236965E-1,1.4094062E-1,1.3203079E-1,-1.1385804E-1,1.4566271E-1,1.3237846E-1,3.0250331E-2,1.3385676E-1,1.3232496E-1,-1.5694906E-1,-1.3428214E-1,-1.3216196E-1,-1.3483432E-1,-1.5405981E-1,-1.3827723E-1],"split_indices":[8,9,3,0,4,8,1,1,0,1,0,2,0,1,0,9,4,0,8,0,2,4,1,11,8,3,0,2,1,1,11,8,9,0,2,0,0,0,2,2,1,2,0,0,0,0,0,0,0,0,0,0,0,0,0,0,0,0,0,0,0,0,0,0,0,0,0,0,0,0,0],"split_type":[0,0,0,0,0,0,0,0,0,0,0,0,0,0,0,0,0,0,0,0,0,0,0,0,0,0,0,0,0,0,0,0,0,0,0,0,0,0,0,0,0,0,0,0,0,0,0,0,0,0,0,0,0,0,0,0,0,0,0,0,0,0,0,0,0,0,0,0,0,0,0],"sum_hessian":[1.0612485E6,4.412027E5,6.200458E5,4.372271E5,3.9755896E3,5.2222553E5,9.782029E4,2.041348E4,4.1681362E5,2.003928E3,1.9716616E3,5.2205484E5,1.7070155E2,9.498329E4,2.836998E3,9.272255E3,1.1141226E4,7.033977E4,3.4647384E5,3.171158E2,1.6868121E3,1.1438259E3,5.20911E5,8.515994E4,9.823352E3,2.68738E3,6.584875E3,3.4339258E3,7.7073003E3,6.81708E4,2.168973E3,2.0199711E5,1.4447673E5,2.1455894E0,1.6846666E3,8.357811E2,3.0804483E2,2.9872383E3,5.1792378E5,8.889952E3,7.6269984E4,6.7895586E3,3.033793E3,2.105196E3,5.821839E2,1.595365E3,1.8385607E3,3.8469647E2,7.3226035E3,6.1353547E4,6.817248E3,1.6859707E3,4.8300232E2,1.903693E5,1.1627806E4,4.7947348E4,9.652939E4,2.6620007E2,1.4184666E3,2.5829074E0,8.3319824E2,2.6261233E3,3.6111502E2,1.2472343E5,3.9320034E5,8.2151E2,8.0684424E3,6.616224E4,1.0107743E4,2.5445005E3,4.245058E3],"tree_param":{"num_deleted":"0","num_feature":"12","num_nodes":"71","size_leaf_vector":"1"}},{"base_weights":[7.1950722E-3,-7.9172325E-1,5.80802E-1,-4.651036E-1,-1.2136621E0,1.1610986E0,-1.1969513E0,-1.1606702E0,7.380871E-3,-7.763609E-1,-1.2476205E0,7.946007E-1,1.2307297E0,-1.2866085E0,1.2986768E0,1.9559494E-1,-1.2716967E0,6.640382E-1,-1.2923186E0,2.2760645E-1,-1.2265184E0,-1.081778E0,-1.2665848E0,1.1841102E0,-1.3000003E0,1.0861962E0,1.2613087E0,-1.2824261E-1,-1.3236222E0,1.3044506E0,-1.2113011E-1,-8.474854E-1,1.0561191E0,-9.730493E-1,-1.2916573E0,1.8317267E-2,9.8708266E-1,-1.3352726E0,-1.2866615E0,1.9686579E0,-1.3244152E-1,-1.3348408E0,8.4902453E-1,-1.210918E0,-4.7720706E-1,-1.2702647E0,-6.1158293E-1,1.2481146E0,9.8330915E-1,-1.285273E-1,-1.3993345E0,1.2164581E0,-1.2989022E0,1.2136344E0,1.2754219E0,-1.3553677E0,-1.3048168E0,1.6491893E-1,1.2811992E-1,6.1436173E-2,-1.2889962E-1,1.2463681E-1,-1.3015962E-2,-1.189727E-1,8.331209E-2,-1.3146238E-1,-1.2847254E-1,6.8926476E-2,-1.3084348E-1,6.729019E-2,1.1234124E-1,-1.3844833E-1,-1.3157377E-1,-1.2817225E-1,-1.3159262E-1,2.0748627E-1,-1.5290459E-1,-1.35138E-1,-1.3018255E-1,1.5486751E-1,-1.461914E-1,-7.151526E-2,-1.29743E-1,6.878758E-2,-1.3149723E-1,-1.24576524E-1,-1.2866634E-1,1.2526369E-1,-1.3141958E-1,1.243534E-1,1.8635818E-1,-4.7736347E-2,1.168736E-1,-1.5087877E-1,-1.297737E-1,1.2590246E-1,1.0082199E-1,-1.3773261E-1,-1.2812422E-1,1.2508428E-1,-1.3268839E-1,1.256911E-1,1.2796107E-1,-1.3087368E-1,-1.3811558E-1,-1.2797464E-1,-1.368875E-1],"categories":[],"categories_nodes":[],"categories_segments":[],"categories_sizes":[],"default_left":[0,0,0,0,0,0,0,0,0,0,0,0,0,0,0,0,0,0,0,0,0,0,0,0,0,0,0,0,0,0,0,0,0,0,0,0,0,0,0,0,0,0,0,0,0,0,0,0,0,0,0,0,0,0,0,0,0,0,0,0,0,0,0,0,0,0,0,0,0,0,0,0,0,0,0,0,0,0,0,0,0,0,0,0,0,0,0,0,0,0,0,0,0,0,0,0,0,0,0,0,0,0,0,0,0,0,0],"id":8,"left_children":[1,3,5,7,9,11,13,15,17,19,21,23,25,27,29,31,33,35,37,39,41,43,45,47,49,51,53,-1,55,57,-1,59,61,63,65,67,69,71,73,75,-1,77,79,81,83,85,87,89,91,-1,93,95,97,99,101,103,105,-1,-1,-1,-1,-1,-1,-1,-1,-1,-1,-1,-1,-1,-1,-1,-1,-1,-1,-1,-1,-1,-1,-1,-1,-1,-1,-1,-1,-1,-1,-1,-1,-1,-1,-1,-1,-1,-1,-1,-1,-1,-1,-1,-1,-1,-1,-1,-1,-1,-1],"loss_changes":[4.559667E5,5.730575E4,5.9747656E5,7.703064E4,2.693375E3,1.114175E4,3.1892203E4,1.4277133E4,1.1912476E5,5.910215E3,5.28125E2,5.6879285E4,1.62025E3,1.9578125E1,7.321875E1,6.4411963E3,5.212031E2,1.9342918E4,9.671875E0,1.0943718E4,2.0310303E3,1.3488223E3,3.6335938E2,7.5427344E2,1.41953125E1,1.9910617E4,2.0225E2,0E0,6.5527344E0,3.742383E1,0E0,2.094563E3,8.8757275E2,2.1513164E3,1.1375E1,2.7527432E4,2.6465977E3,3.3935547E0,4.296875E0,7.1220605E2,0E0,2.9267578E0,7.273312E2,6.098574E2,2.971772E3,5.8765625E1,1.1097306E3,1.2334375E2,3.8501064E3,0E0,1.3612305E1,5.373281E2,2.831543E0,6.542461E3,1.65E1,4.3964844E0,1.2347656E1,0E0,0E0,0E0,0E0,0E0,0E0,0E0,0E0,0E0,0E0,0E0,0E0,0E0,0E0,0E0,0E0,0E0,0E0,0E0,0E0,0E0,0E0,0E0,0E0,0E0,0E0,0E0,0E0,0E0,0E0,0E0,0E0,0E0,0E0,0E0,0E0,0E0,0E0,0E0,0E0,0E0,0E0,0E0,0E0,0E0,0E0,0E0,0E0,0E0,0E0],"parents":[2147483647,0,0,1,1,2,2,3,3,4,4,5,5,6,6,7,7,8,8,9,9,10,10,11,11,12,12,13,13,14,14,15,15,16,16,17,17,18,18,19,19,20,20,21,21,22,22,23,23,24,24,25,25,26,26,28,28,29,29,31,31,32,32,33,33,34,34,35,35,36,36,37,37,38,38,39,39,41,41,42,42,43,43,44,44,45,45,46,46,47,47,48,48,50,50,51,51,52,52,53,53,54,54,55,55,56,56],"right_children":[2,4,6,8,10,12,14,16,18,20,22,24,26,28,30,32,34,36,38,40,42,44,46,48,50,52,54,-1,56,58,-1,60,62,64,66,68,70,72,74,76,-1,78,80,82,84,86,88,90,92,-1,94,96,98,100,102,104,106,-1,-1,-1,-1,-1,-1,-1,-1,-1,-1,-1,-1,-1,-1,-1,-1,-1,-1,-1,-1,-1,-1,-1,-1,-1,-1,-1,-1,-1,-1,-1,-1,-1,-1,-1,-1,-1,-1,-1,-1,-1,-1,-1,-1,-1,-1,-1,-1,-1,-1],"split_conditions":[5.6152E4,5.554358E4,4.1786E2,1.116E3,1.6E1,1.28003E5,1.195462E6,6.9416E2,4.1786E2,4.537246E4,3.9E1,1.2827377E5,2.3508612E5,5.978697E4,4.82391E3,5E1,1.6E1,1.2303E4,1.0000001E-2,5E1,1.8394249E6,3.7E1,5.4722E4,9.034864E4,1.13516E5,2.3559155E5,4.312083E5,-1.2824261E-1,2.3508612E5,1.4395741E6,-1.2113011E-1,2.910383E-11,1.63E2,1.272385E6,1.0000001E-2,1.182122E4,2.1464E4,1.9918E4,2.00192E4,8.68426E3,-1.3244152E-1,5E1,3.2550892E6,9.024885E4,4.1199938E5,5.7421656E5,5.692634E4,3.742701E5,9.0382E4,-1.285273E-1,2.3559155E5,1.8208969E5,2.696547E5,4.3556672E5,6.5667E5,3.232372E4,2.3256995E5,1.6491893E-1,1.2811992E-1,6.1436173E-2,-1.2889962E-1,1.2463681E-1,-1.3015962E-2,-1.189727E-1,8.331209E-2,-1.3146238E-1,-1.2847254E-1,6.8926476E-2,-1.3084348E-1,6.729019E-2,1.1234124E-1,-1.3844833E-1,-1.3157377E-1,-1.2817225E-1,-1.3159262E-1,2.0748627E-1,-1.5290459E-1,-1.35138E-1,-1.3018255E-1,1.5486751E-1,-1.461914E-1,-7.151526E-2,-1.29743E-1,6.878758E-2,-1.3149723E-1,-1.24576524E-1,-1.2866634E-1,1.2526369E-1,-1.3141958E-1,1.243534E-1,1.8635818E-1,-4.7736347E-2,1.168736E-1,-1.5087877E-1,-1.297737E-1,1.2590246E-1,1.0082199E-1,-1.3773261E-1,-1.2812422E-1,1.2508428E-1,-1.3268839E-1,1.256911E-1,1.2796107E-1,-1.3087368E-1,-1.3811558E-1,-1.2797464E-1,-1.368875E-1],"split_indices":[2,1,3,2,0,2,1,1,3,4,0,1,2,7,5,2,0,2,9,2,1,0,2,7,2,1,2,0,2,1,0,9,0,4,9,1,2,2,1,9,0,2,5,1,5,5,1,9,2,0,1,7,1,1,2,3,1,0,0,0,0,0,0,0,0,0,0,0,0,0,0,0,0,0,0,0,0,0,0,0,0,0,0,0,0,0,0,0,0,0,0,0,0,0,0,0,0,0,0,0,0,0,0,0,0,0,0],"split_type":[0,0,0,0,0,0,0,0,0,0,0,0,0,0,0,0,0,0,0,0,0,0,0,0,0,0,0,0,0,0,0,0,0,0,0,0,0,0,0,0,0,0,0,0,0,0,0,0,0,0,0,0,0,0,0,0,0,0,0,0,0,0,0,0,0,0,0,0,0,0,0,0,0,0,0,0,0,0,0,0,0,0,0,0,0,0,0,0,0,0,0,0,0,0,0,0,0,0,0,0,0,0,0,0,0,0,0],"sum_hessian":[9.9498244E5,4.1582378E5,5.791587E5,2.3438798E5,1.814358E5,4.3663278E5,1.425259E5,9.4810914E4,1.3957706E5,1.3075717E4,1.6836008E5,6.971349E4,3.6691928E5,1.375836E5,4.9422993E3,7.1740576E3,8.763686E4,9.272791E4,4.6849156E4,4.0480393E3,9.027678E3,1.7282555E4,1.5107753E5,5.8782758E4,1.0930736E4,6.407958E4,3.0283972E5,1.2364771E5,1.393589E4,4.9314355E3,1.0863656E1,3.2430383E3,3.931019E3,5.4935405E3,8.214331E4,3.0921398E4,6.1806508E4,5.4247124E3,4.142444E4,1.9077098E3,2.1403293E3,8.580233E3,4.474445E2,1.4239838E4,3.042716E3,1.5023255E5,8.4497906E2,4.4570805E4,1.4211953E4,9.531521E3,1.3992145E3,6.0761582E4,3.3179993E3,6.919299E4,2.3364672E5,5.1578345E3,8.778055E3,3.071756E2,4.6242603E3,7.521777E2,2.4908608E3,3.3876719E3,5.433472E2,4.905404E3,5.8813666E2,1.9001361E4,6.3141953E4,2.0536455E4,1.0384943E4,1.870516E4,4.3101348E4,1.5216418E3,3.9030708E3,3.548097E4,5.943473E3,1.8518857E3,5.582415E1,5.689907E3,2.890326E3,3.4371313E2,1.0373136E2,2.117064E3,1.2122774E4,1.2728032E3,1.7699128E3,6.026859E4,8.996396E4,2.3107979E2,6.138993E2,4.4244535E4,3.2627203E2,1.6007448E3,1.2611208E4,6.668993E2,7.3231525E2,5.044499E4,1.0316592E4,5.9568744E2,2.722312E3,6.819473E4,9.9827167E2,4.3169957E4,1.9047677E5,1.8551122E3,3.3027224E3,6.324007E3,2.4540479E3],"tree_param":{"num_deleted":"0","num_feature":"12","num_nodes":"107","size_leaf_vector":"1"}},{"base_weights":[-4.2130435E-3,-1.2151923E0,8.659691E-1,-1.2230586E0,1.24663785E-1,1.2518454E0,-1.1579299E0,-1.2266449E0,-6.1162037E-1,1.252828E0,-1.3668095E-1,-1.2594095E0,1.2472724E-1,-1.1140649E0,-1.2476938E0,-1.2488397E-1,1.4094212E0,1.2599932E0,1.2451701E0,-1.2536817E0,-1.3084154E0,7.266764E-2,-1.1272235E0,-1.2289771E0,-1.2707212E0,-1.23718575E-1,1.4467452E0,1.3120804E0,1.2537258E0,-1.7108928E-1,1.2509645E0,-1.2795444E0,-1.2506382E0,-1.3376184E0,-1.2410468E-1,-1.3113044E-1,9.6396804E-2,-1.0218432E-1,-1.2406842E-1,-1.2360354E-1,-4.3355502E-2,-1.260213E-1,-1.3697125E-1,1.3112856E-1,1.5497851E-1,1.4244941E-1,1.3082731E-1,1.2650472E-1,1.24833874E-1,1.317797E-1,1.2504767E-1,-1.4257775E-1,-1.2639762E-1,-1.2479192E-1,-1.2683076E-1,-1.4050992E-1,-1.2951663E-1],"categories":[],"categories_nodes":[],"categories_segments":[],"categories_sizes":[],"default_left":[0,0,0,0,0,0,0,0,0,0,0,0,0,0,0,0,0,0,0,0,0,0,0,0,0,0,0,0,0,0,0,0,0,0,0,0,0,0,0,0,0,0,0,0,0,0,0,0,0,0,0,0,0,0,0,0,0],"id":9,"left_children":[1,3,5,7,-1,9,11,13,15,17,-1,19,-1,21,23,-1,25,27,29,31,33,35,37,39,41,-1,43,45,47,-1,49,51,53,55,-1,-1,-1,-1,-1,-1,-1,-1,-1,-1,-1,-1,-1,-1,-1,-1,-1,-1,-1,-1,-1,-1,-1],"loss_changes":[9.707539E5,7.46075E3,4.186312E5,8.4125E2,0E0,1.1601875E3,2.0952219E4,9.030625E2,2.8876897E3,2.30625E1,0E0,2.1484375E1,0E0,9.391406E2,1.370625E2,0E0,5.4899048E1,7.421875E1,3.72975E3,4.203125E0,1.5251953E1,8.159143E2,7.09875E2,9.955625E2,1.4825E2,0E0,5.3741455E0,8.808594E0,1.109375E1,0E0,5.4375E0,1.5780273E1,1.59375E0,1.5322266E1,0E0,0E0,0E0,0E0,0E0,0E0,0E0,0E0,0E0,0E0,0E0,0E0,0E0,0E0,0E0,0E0,0E0,0E0,0E0,0E0,0E0,0E0,0E0],"parents":[2147483647,0,0,1,1,2,2,3,3,5,5,6,6,7,7,8,8,9,9,11,11,13,13,14,14,16,16,17,17,18,18,19,19,20,20,21,21,22,22,23,23,24,24,26,26,27,27,28,28,30,30,31,31,32,32,33,33],"right_children":[2,4,6,8,-1,10,12,14,16,18,-1,20,-1,22,24,-1,26,28,30,32,34,36,38,40,42,-1,44,46,48,-1,50,52,54,56,-1,-1,-1,-1,-1,-1,-1,-1,-1,-1,-1,-1,-1,-1,-1,-1,-1,-1,-1,-1,-1,-1,-1],"split_conditions":[0E0,1E7,4.1786E2,9.6803225E5,1.24663785E-1,4.5474735E-13,1E7,3.9E1,0E0,2E0,-1.3668095E-1,5.854063E4,1.2472724E-1,-1.7794801E6,-9.368195E4,-1.2488397E-1,6.5667E5,3.312912E4,4E0,2E0,4.5474735E-13,4.656613E-10,4.654E3,-9.579355E4,3.3216E4,-1.23718575E-1,2.13E2,1.2E2,2.3508612E5,-1.7108928E-1,-2.817243E4,1.9918E4,2.00192E4,2.3508612E5,-1.2410468E-1,-1.3113044E-1,9.6396804E-2,-1.0218432E-1,-1.2406842E-1,-1.2360354E-1,-4.3355502E-2,-1.260213E-1,-1.3697125E-1,1.3112856E-1,1.5497851E-1,1.4244941E-1,1.3082731E-1,1.2650472E-1,1.24833874E-1,1.317797E-1,1.2504767E-1,-1.4257775E-1,-1.2639762E-1,-1.2479192E-1,-1.2683076E-1,-1.4050992E-1,-1.2951663E-1],"split_indices":[8,6,3,9,0,8,6,0,7,11,0,1,0,8,8,0,2,1,11,11,8,9,2,8,6,0,0,2,2,0,9,2,1,2,0,0,0,0,0,0,0,0,0,0,0,0,0,0,0,0,0,0,0,0,0,0,0],"split_type":[0,0,0,0,0,0,0,0,0,0,0,0,0,0,0,0,0,0,0,0,0,0,0,0,0,0,0,0,0,0,0,0,0,0,0,0,0,0,0,0,0,0,0,0,0,0,0,0,0,0,0,0,0,0,0,0,0],"sum_hessian":[9.212157E5,3.8518162E5,5.3603406E5,3.8395528E5,1.2263406E3,4.501995E5,8.583456E4,3.8171538E5,2.239895E3,4.5003116E5,1.6835251E2,8.2360125E4,3.4744377E3,6.0135504E4,3.2157988E5,1.7032539E3,5.366412E2,2.3240916E5,2.17622E5,7.376496E4,8.595162E3,6.594194E2,5.9476086E4,1.7742411E5,1.4415577E5,7.015708E0,5.296254E2,2.4939068E4,2.074701E5,4.2516876E2,2.1719683E5,7.722205E3,6.604276E4,5.9828564E3,2.612306E3,2.5813205E2,4.0128735E2,3.0841277E4,2.8634807E4,1.7586303E5,1.5610885E3,1.30334055E5,1.3821707E4,2.3474644E2,2.94879E2,8.047762E2,2.4134293E4,6.681577E4,1.4065431E5,1.5546245E3,2.156422E5,7.3429956E2,6.9879053E3,5.7296953E4,8.745805E3,2.2979666E3,3.6848896E3],"tree_param":{"num_deleted":"0","num_feature":"12","num_nodes":"57","size_leaf_vector":"1"}},{"base_weights":[-1.4321677E-2,-1.1761663E0,8.385629E-1,-1.1812332E0,1.2170191E-1,1.2214562E0,-1.1467551E0,-8.763111E-1,-1.2036169E0,1.2224252E0,-1.3172667E-1,-1.2288568E0,1.2181175E-1,-5.5675405E-1,-1.1670403E0,-1.2074592E0,-5.294805E-1,1.1665043E0,1.2236004E0,-1.2238613E0,-1.2711456E0,-2.3380141E-1,-1.251129E0,-1.2392207E0,-6.432172E-1,-1.1696385E0,-1.2339263E0,1.3829843E0,-1.21816635E-1,1.1765085E0,-1.6959589E0,1.2364012E0,1.2208407E0,-1.2327814E0,-1.2184601E-1,-1.2958999E0,-1.2128732E-1,1.815506E-1,-9.1919765E-2,-1.3040854E-1,-1.2402115E-1,-1.2550592E-1,-1.2260275E-1,-1.2946741E-1,1.4763087E-1,-9.9930815E-2,-1.2014377E-1,-1.2260195E-1,-1.2752064E-1,1.267355E-1,1.4683793E-1,1.2739912E-1,1.063201E-1,-2.2479089E-1,-1.4764033E-1,1.21884145E-1,1.251813E-1,1.2253857E-1,1.2188871E-1,-1.2249052E-1,-1.2815805E-1,-1.3513342E-1,-1.2603071E-1],"categories":[],"categories_nodes":[],"categories_segments":[],"categories_sizes":[],"default_left":[0,0,0,0,0,0,0,0,0,0,0,0,0,0,0,0,0,0,0,0,0,0,0,0,0,0,0,0,0,0,0,0,0,0,0,0,0,0,0,0,0,0,0,0,0,0,0,0,0,0,0,0,0,0,0,0,0,0,0,0,0,0,0],"id":10,"left_children":[1,3,5,7,-1,9,11,13,15,17,-1,19,-1,21,23,25,27,29,31,33,35,37,39,41,43,45,47,49,-1,51,53,55,57,59,-1,61,-1,-1,-1,-1,-1,-1,-1,-1,-1,-1,-1,-1,-1,-1,-1,-1,-1,-1,-1,-1,-1,-1,-1,-1,-1,-1,-1],"loss_changes":[8.387552E5,4.3464375E3,3.7105453E5,2.4394062E3,0E0,1.0084375E3,1.5324664E4,2.2714746E3,8.6221875E2,2.54375E1,0E0,1.45546875E1,0E0,2.612796E3,4.8335547E2,3.3009375E2,2.4904824E3,2.436875E2,1.2625E1,1.78125E0,1.0013672E1,1.1174683E4,5.205078E-1,8.125E-1,2.1460598E3,7.375E2,6.2E1,3.0836792E0,0E0,9.1549805E1,2.9296112E-1,1.76875E1,1.4375E0,8.292969E0,0E0,9.390625E0,0E0,0E0,0E0,0E0,0E0,0E0,0E0,0E0,0E0,0E0,0E0,0E0,0E0,0E0,0E0,0E0,0E0,0E0,0E0,0E0,0E0,0E0,0E0,0E0,0E0,0E0,0E0],"parents":[2147483647,0,0,1,1,2,2,3,3,5,5,6,6,7,7,8,8,9,9,11,11,13,13,14,14,15,15,16,16,17,17,18,18,19,19,20,20,21,21,22,22,23,23,24,24,25,25,26,26,27,27,29,29,30,30,31,31,32,32,33,33,35,35],"right_children":[2,4,6,8,-1,10,12,14,16,18,-1,20,-1,22,24,26,28,30,32,34,36,38,40,42,44,46,48,50,-1,52,54,56,58,60,-1,62,-1,-1,-1,-1,-1,-1,-1,-1,-1,-1,-1,-1,-1,-1,-1,-1,-1,-1,-1,-1,-1,-1,-1,-1,-1,-1,-1],"split_conditions":[0E0,1E7,4.1786E2,1.6E1,1.2170191E-1,4.5474735E-13,1E7,5E1,9.6803225E5,6.33158E3,-1.3172667E-1,5.8285E4,1.2181175E-1,-3.881341E4,7.325287E4,5E1,1.96582E3,3.21E2,8.39031E4,3.232372E4,4.5474735E-13,4.537246E4,1.0000001E-2,4.1786E2,3.8802094E5,9.3E1,3.3216E4,-1.7794801E6,-1.21816635E-1,1.0000001E-2,1.0000001E-2,4.82391E3,2.95087E5,2.0013E4,-1.2184601E-1,2.3508612E5,-1.2128732E-1,1.815506E-1,-9.1919765E-2,-1.3040854E-1,-1.2402115E-1,-1.2550592E-1,-1.2260275E-1,-1.2946741E-1,1.4763087E-1,-9.9930815E-2,-1.2014377E-1,-1.2260195E-1,-1.2752064E-1,1.267355E-1,1.4683793E-1,1.2739912E-1,1.063201E-1,-2.2479089E-1,-1.4764033E-1,1.21884145E-1,1.251813E-1,1.2253857E-1,1.2188871E-1,-1.2249052E-1,-1.2815805E-1,-1.3513342E-1,-1.2603071E-1],"split_indices":[8,6,3,0,0,8,6,2,9,6,0,6,0,8,6,2,4,0,2,3,8,4,9,3,9,0,6,8,0,9,9,5,2,6,0,2,0,0,0,0,0,0,0,0,0,0,0,0,0,0,0,0,0,0,0,0,0,0,0,0,0,0,0],"split_type":[0,0,0,0,0,0,0,0,0,0,0,0,0,0,0,0,0,0,0,0,0,0,0,0,0,0,0,0,0,0,0,0,0,0,0,0,0,0,0,0,0,0,0,0,0,0,0,0,0,0,0,0,0,0,0,0,0,0,0,0,0,0,0],"sum_hessian":[8.464395E5,3.5831856E5,4.881209E5,3.5756203E5,7.565291E2,4.092017E5,7.891924E4,2.4455527E4,3.331065E5,4.0904603E5,1.5563026E2,7.627178E4,2.6474626E3,1.1651555E4,1.2803973E4,3.3121788E5,1.8886223E3,8.438871E3,4.006072E5,6.824064E4,8.03114E3,7.953658E3,3.6978962E3,1.1252119E4,1.5518531E3,1.3638012E5,1.9483775E5,4.9976846E2,1.3888538E3,8.410066E3,2.8804163E1,7.096839E4,3.2963878E5,2.565123E4,4.2589414E4,5.6217593E3,2.409381E3,1.9930046E3,5.960654E3,6.118116E2,3.0860847E3,5.0706294E3,6.18149E3,1.1873108E3,3.6454236E2,2.1460594E4,1.1491953E5,1.6354322E5,3.1294527E4,2.1903049E2,2.80738E2,4.515221E3,3.8948452E3,5.5680213E0,2.3236141E1,3.3210004E4,3.7758383E4,9.89073E4,2.3073148E5,2.2108885E4,3.5423445E3,2.1837275E3,3.4380317E3],"tree_param":{"num_deleted":"0","num_feature":"12","num_nodes":"63","size_leaf_vector":"1"}},{"base_weights":[-1.480657E-3,-1.1410695E0,8.259977E-1,-1.1503003E0,-4.210194E-2,1.1953063E0,-1.1277398E0,-1.0862384E0,-1.1961956E0,-1.1947536E-1,1.2252243E0,1.1962439E0,-1.2773716E-1,-1.202463E0,1.19260505E-1,-1.2031243E0,-9.941171E-1,-1.1176398E0,-1.2014508E0,-1.12913124E-1,1.2364308E0,1.1311916E0,1.1977167E0,-1.1984583E0,-1.2419733E0,-1.22329E-1,-1.1982774E-1,2.7658367E0,-1.0246333E0,-1.1945156E-1,1.6562759E0,-1.187193E0,-1.2270032E0,1.4051369E-1,1.19243704E-1,1.2531583E0,1.0091162E0,1.207156E0,1.1951225E0,-1.2181695E0,-1.195853E0,-1.2659469E0,-1.1883044E-1,5.047628E-1,1.6379763E-1,-1.2142619E-2,-1.0710861E-1,-1.1468734E-1,1.7414011E-1,-1.1977693E-1,-9.48311E-2,-1.2023925E-1,-1.2674528E-1,1.3361177E-1,1.2355181E-1,-1.6281447E-1,1.2208368E-1,1.1928385E-1,1.2209139E-1,1.1990495E-1,1.19380765E-1,-1.32823E-1,-1.2073205E-1,-1.1936857E-1,-1.2094013E-1,-1.3279225E-1,-1.2339505E-1],"categories":[],"categories_nodes":[],"categories_segments":[],"categories_sizes":[],"default_left":[0,0,0,0,0,0,0,0,0,0,0,0,0,0,0,0,0,0,0,0,0,0,0,0,0,0,0,0,0,0,0,0,0,0,0,0,0,0,0,0,0,0,0,0,0,0,0,0,0,0,0,0,0,0,0,0,0,0,0,0,0,0,0,0,0,0,0],"id":11,"left_children":[1,3,5,7,9,11,13,15,17,-1,19,21,-1,23,-1,25,27,29,31,-1,33,35,37,39,41,-1,-1,43,45,-1,47,49,51,-1,-1,53,55,57,59,61,63,65,-1,-1,-1,-1,-1,-1,-1,-1,-1,-1,-1,-1,-1,-1,-1,-1,-1,-1,-1,-1,-1,-1,-1,-1,-1],"loss_changes":[7.448136E5,3.370625E3,3.301637E5,9.674375E2,4.0458408E3,8.938125E2,1.2614344E4,1.4797969E3,7.7875E1,0E0,3.6202637E1,3.54375E1,0E0,9.6640625E0,0E0,4.4609375E0,8.829023E3,2.57175E3,6.409375E1,0E0,8.072876E0,1.2581055E2,7.8125E0,1.8359375E0,6.805664E0,0E0,0E0,1.58621E3,3.2013516E3,0E0,7.963977E1,2.9067188E2,6.259375E1,0E0,0E0,4.5908203E0,2.386521E3,1.44921875E1,9.375E-2,7.256836E0,2.109375E-1,7.1835938E0,0E0,0E0,0E0,0E0,0E0,0E0,0E0,0E0,0E0,0E0,0E0,0E0,0E0,0E0,0E0,0E0,0E0,0E0,0E0,0E0,0E0,0E0,0E0,0E0,0E0],"parents":[2147483647,0,0,1,1,2,2,3,3,4,4,5,5,6,6,7,7,8,8,10,10,11,11,13,13,15,15,16,16,17,17,18,18,20,20,21,21,22,22,23,23,24,24,27,27,28,28,30,30,31,31,32,32,35,35,36,36,37,37,38,38,39,39,40,40,41,41],"right_children":[2,4,6,8,10,12,14,16,18,-1,20,22,-1,24,-1,26,28,30,32,-1,34,36,38,40,42,-1,-1,44,46,-1,48,50,52,-1,-1,54,56,58,60,62,64,66,-1,-1,-1,-1,-1,-1,-1,-1,-1,-1,-1,-1,-1,-1,-1,-1,-1,-1,-1,-1,-1,-1,-1,-1,-1],"split_conditions":[0E0,9.6803225E5,4.1786E2,5E1,0E0,4.5474735E-13,2.7489755E6,3.845089E4,-2.6466203E5,-1.1947536E-1,6.5667E5,6.25878E3,-1.2773716E-1,7.035523E4,1.19260505E-1,3E0,9.889316E4,3E0,-7.442421E4,-1.12913124E-1,1.4395741E6,2E0,1.04809E5,2E0,4.5474735E-13,-1.22329E-1,-1.1982774E-1,4.122768E4,2.3471464E5,-1.1945156E-1,-2.786606E5,-8.6466E4,9.2414E2,1.4051369E-1,1.19243704E-1,1.78E2,4E0,4.82391E3,2.7341103E5,1.9918E4,2.00192E4,2.3508612E5,-1.1883044E-1,5.047628E-1,1.6379763E-1,-1.2142619E-2,-1.0710861E-1,-1.1468734E-1,1.7414011E-1,-1.1977693E-1,-9.48311E-2,-1.2023925E-1,-1.2674528E-1,1.3361177E-1,1.2355181E-1,-1.6281447E-1,1.2208368E-1,1.1928385E-1,1.2209139E-1,1.1990495E-1,1.19380765E-1,-1.32823E-1,-1.2073205E-1,-1.1936857E-1,-1.2094013E-1,-1.3279225E-1,-1.2339505E-1],"split_indices":[8,9,3,2,7,8,1,7,7,0,2,1,0,1,0,11,5,11,8,0,1,11,2,11,8,0,0,5,5,0,7,8,7,0,0,2,11,5,1,2,1,2,0,0,0,0,0,0,0,0,0,0,0,0,0,0,0,0,0,0,0,0,0,0,0,0,0],"split_type":[0,0,0,0,0,0,0,0,0,0,0,0,0,0,0,0,0,0,0,0,0,0,0,0,0,0,0,0,0,0,0,0,0,0,0,0,0,0,0,0,0,0,0,0,0,0,0,0,0,0,0,0,0,0,0,0,0,0,0,0,0,0,0,0,0,0,0],"sum_hessian":[7.8984475E5,3.3226072E5,4.5758406E5,3.2949306E5,2.767632E3,3.848395E5,7.274457E4,1.3753819E5,1.9195489E5,1.4494204E3,1.3182117E3,3.8469412E5,1.4535654E2,7.047549E4,2.2690781E3,6.0615598E4,7.6922586E4,1.2049683E4,1.799052E5,5.77229E0,1.3124393E3,8.533701E3,3.7616044E5,6.401792E4,6.457568E3,1.1697288E4,4.891831E4,6.185654E2,7.630402E4,1.1725299E4,3.2438348E2,1.15503586E5,6.4401617E4,2.6505875E2,1.0473806E3,4.264118E3,4.2695825E3,8.09944E4,2.9516603E5,7.41927E3,5.6598652E4,4.4480596E3,2.0095083E3,2.0346234E2,4.1510312E2,3.7325957E3,7.257143E4,9.192848E0,3.1519064E2,1.1060272E5,4.900872E3,4.0059086E4,2.4342531E4,7.346107E2,3.5295073E3,3.167948E2,3.9527878E3,3.9732953E4,4.1261445E4,7.3814055E4,2.2135198E5,6.5482074E2,6.764449E3,4.887014E4,7.7285137E3,1.5007211E3,2.9473384E3],"tree_param":{"num_deleted":"0","num_feature":"12","num_nodes":"67","size_leaf_vector":"1"}},{"base_weights":[2.858106E-3,-1.1268262E0,8.1437385E-1,-1.132867E0,1.17036E-1,1.172458E0,-1.1063591E0,-8.511793E-1,-1.1538048E0,1.1733435E0,-1.2428345E-1,-1.1796005E0,1.1712108E-1,-5.670308E-1,-1.1143361E0,-1.0754349E0,-1.1682858E0,1.1062627E0,1.1751362E0,-1.1760385E0,-1.2135987E0,-1.2000414E-1,-2.1864973E-1,-4.4540307E-1,-1.1939001E0,-1.1861079E0,-8.9581573E-1,-1.1701496E0,-7.910338E-1,1.1885897E0,1.0337211E0,1.1824268E0,1.17304616E-1,-1.189215E0,-1.1736502E-1,-1.2340565E0,-1.167262E-1,1.6761762E-1,-7.9388104E-2,-1.1751175E-1,1.4989038E-1,-1.1890961E-1,-1.2523422E-1,-1.1831039E-1,-1.268137E-1,2.0924614E-1,-9.659466E-2,-1.14867285E-1,-1.18119456E-1,1.1991006E-1,-1.17075615E-1,1.1924521E-1,-1.8662022E-1,8.3115764E-2,1.0869222E-1,1.1703352E-1,1.1936436E-1,-1.2162904E-1,-1.17527746E-1,-1.2837471E-1,-1.2069161E-1],"categories":[],"categories_nodes":[],"categories_segments":[],"categories_sizes":[],"default_left":[0,0,0,0,0,0,0,0,0,0,0,0,0,0,0,0,0,0,0,0,0,0,0,0,0,0,0,0,0,0,0,0,0,0,0,0,0,0,0,0,0,0,0,0,0,0,0,0,0,0,0,0,0,0,0,0,0,0,0,0,0],"id":12,"left_children":[1,3,5,7,-1,9,11,13,15,17,-1,19,-1,21,23,25,27,29,31,33,35,-1,37,39,41,43,45,47,49,51,53,55,-1,57,-1,59,-1,-1,-1,-1,-1,-1,-1,-1,-1,-1,-1,-1,-1,-1,-1,-1,-1,-1,-1,-1,-1,-1,-1,-1,-1],"loss_changes":[6.7245556E5,4.2565938E3,2.935963E5,1.8028438E3,0E0,7.709375E2,1.1190719E4,1.5819258E3,3.218125E2,4.190625E1,0E0,6.4296875E0,0E0,2.2443267E3,5.8422266E2,8.8178906E2,1.6796875E2,5.4780273E1,3.96875E0,4.609375E-1,4.3710938E0,0E0,7.1583555E3,1.6610077E3,1.2675781E0,5.2695312E0,3.5512559E3,5.5375E1,8.963466E2,5.3975098E1,5.2904297E1,9.171875E0,0E0,1.9521484E0,0E0,4.1640625E0,0E0,0E0,0E0,0E0,0E0,0E0,0E0,0E0,0E0,0E0,0E0,0E0,0E0,0E0,0E0,0E0,0E0,0E0,0E0,0E0,0E0,0E0,0E0,0E0,0E0],"parents":[2147483647,0,0,1,1,2,2,3,3,5,5,6,6,7,7,8,8,9,9,11,11,13,13,14,14,15,15,16,16,17,17,18,18,19,19,20,20,22,22,23,23,24,24,25,25,26,26,27,27,28,28,29,29,30,30,31,31,33,33,35,35],"right_children":[2,4,6,8,-1,10,12,14,16,18,-1,20,-1,22,24,26,28,30,32,34,36,-1,38,40,42,44,46,48,50,52,54,56,-1,58,-1,60,-1,-1,-1,-1,-1,-1,-1,-1,-1,-1,-1,-1,-1,-1,-1,-1,-1,-1,-1,-1,-1,-1,-1,-1,-1],"split_conditions":[0E0,1E7,4.1786E2,1.6E1,1.17036E-1,4.5474735E-13,1E7,5E1,9.3E1,7.51723E3,-1.2428345E-1,6.807212E4,1.1712108E-1,3.845089E4,-2.6466203E5,1.1242788E5,9.6803225E5,1.0000001E-2,1.13516E5,1.4719E2,4.5474735E-13,-1.2000414E-1,1.144763E4,7.325287E4,1.0840435E5,3.3216E4,1.1573502E5,1.96582E3,1.96582E3,3.29E2,9.0489E2,4.82391E3,1.17304616E-1,2.540027E4,-1.1736502E-1,2.3508612E5,-1.167262E-1,1.6761762E-1,-7.9388104E-2,-1.1751175E-1,1.4989038E-1,-1.1890961E-1,-1.2523422E-1,-1.1831039E-1,-1.268137E-1,2.0924614E-1,-9.659466E-2,-1.14867285E-1,-1.18119456E-1,1.1991006E-1,-1.17075615E-1,1.1924521E-1,-1.8662022E-1,8.3115764E-2,1.0869222E-1,1.1703352E-1,1.1936436E-1,-1.2162904E-1,-1.17527746E-1,-1.2837471E-1,-1.2069161E-1],"split_indices":[8,6,3,0,0,8,6,2,0,6,0,6,0,7,7,7,9,9,2,9,8,0,4,6,6,6,7,4,4,0,9,5,0,3,0,2,0,0,0,0,0,0,0,0,0,0,0,0,0,0,0,0,0,0,0,0,0,0,0,0,0],"split_type":[0,0,0,0,0,0,0,0,0,0,0,0,0,0,0,0,0,0,0,0,0,0,0,0,0,0,0,0,0,0,0,0,0,0,0,0,0,0,0,0,0,0,0,0,0,0,0,0,0,0,0,0,0,0,0,0,0,0,0,0,0],"sum_hessian":[7.3351394E5,3.0664425E5,4.2686972E5,3.058405E5,8.037436E2,3.5979344E5,6.707628E4,2.1163078E4,2.846774E5,3.596621E5,1.3134389E2,6.498693E4,2.0893484E3,1.0177206E4,1.0985872E4,4.44103E4,2.4026711E5,9.377116E3,3.50285E5,5.8856168E4,6.1307627E3,3.6119055E3,6.5653003E3,1.1684808E3,9.817391E3,2.747555E4,1.693475E4,2.3908386E5,1.183259E3,4.3851055E3,4.9920103E3,7.791764E4,2.7236734E5,8.955292E3,4.9900875E4,4.2352583E3,1.8955044E3,1.5284932E3,5.0368076E3,8.499015E2,3.185794E2,9.091397E3,7.2599347E2,2.6519828E4,9.557236E2,3.876615E2,1.654709E4,8.123276E4,1.578511E5,1.8924792E2,9.940111E2,4.3801772E3,4.928487E0,1.0418359E3,3.950174E3,3.7547203E4,4.037044E4,3.0139849E3,5.9413066E3,1.4797395E3,2.7555188E3],"tree_param":{"num_deleted":"0","num_feature":"12","num_nodes":"61","size_leaf_vector":"1"}},{"base_weights":[3.2201348E-4,-1.1112937E0,8.007376E-1,-1.117228E0,1.151281E-1,1.1527789E0,-1.0770048E0,-7.813725E-1,-1.1353115E0,1.153686E0,-1.2163966E-1,-1.1596895E0,1.1522546E-1,3.135478E-1,-8.760535E-1,-1.1389215E0,-5.087361E-1,1.0724859E0,1.1555685E0,-1.156551E0,-1.1895813E0,9.6415114E-1,-1.2001041E-1,-9.159624E-1,5.155261E-1,-1.0624577E0,-1.1549608E0,-1.1522213E-1,1.2456238E0,1.0777711E0,-1.626331E-1,1.1587113E0,1.1523219E0,-1.1717839E0,-1.15456045E-1,-1.2073362E0,-1.1487501E-1,-1.2352451E-1,1.4206986E-1,-1.1059698E-1,-6.219685E-2,1.08001225E-1,-1.18566714E-1,-1.0872467E-1,-3.0807167E-2,-1.13657355E-1,-1.1637324E-1,-8.747151E-2,1.2606089E-1,1.19385675E-1,9.6616216E-2,1.18656114E-1,1.15624025E-1,-1.9301777E-1,1.154468E-1,-1.2540546E-1,-1.1632109E-1,-1.2494817E-1,-1.1836977E-1],"categories":[],"categories_nodes":[],"categories_segments":[],"categories_sizes":[],"default_left":[0,0,0,0,0,0,0,0,0,0,0,0,0,0,0,0,0,0,0,0,0,0,0,0,0,0,0,0,0,0,0,0,0,0,0,0,0,0,0,0,0,0,0,0,0,0,0,0,0,0,0,0,0,0,0,0,0,0,0],"id":13,"left_children":[1,3,5,7,-1,9,11,13,15,17,-1,19,-1,21,23,25,27,29,31,33,35,37,-1,39,41,43,45,-1,47,49,-1,51,53,55,-1,57,-1,-1,-1,-1,-1,-1,-1,-1,-1,-1,-1,-1,-1,-1,-1,-1,-1,-1,-1,-1,-1,-1,-1],"loss_changes":[6.005948E5,3.7954375E3,2.594195E5,1.7107812E3,0E0,7.1175E2,1.1422016E4,1.4933789E3,6.0434375E2,4.928125E1,0E0,4.234375E0,0E0,1.1307642E3,7.367002E2,3.2490625E2,1.7329539E3,1.0870996E2,1.9375E0,2.8125E-1,2.703125E0,8.0786066E2,0E0,7.192178E2,3.5680914E2,8.620781E2,3.4125E1,0E0,1.4196411E1,9.5819336E1,0E0,9.90625E0,1.0539688E3,2.9033203E0,0E0,2.4194336E0,0E0,0E0,0E0,0E0,0E0,0E0,0E0,0E0,0E0,0E0,0E0,0E0,0E0,0E0,0E0,0E0,0E0,0E0,0E0,0E0,0E0,0E0,0E0],"parents":[2147483647,0,0,1,1,2,2,3,3,5,5,6,6,7,7,8,8,9,9,11,11,13,13,14,14,15,15,16,16,17,17,18,18,19,19,20,20,21,21,23,23,24,24,25,25,26,26,28,28,29,29,31,31,32,32,33,33,35,35],"right_children":[2,4,6,8,-1,10,12,14,16,18,-1,20,-1,22,24,26,28,30,32,34,36,38,-1,40,42,44,46,-1,48,50,-1,52,54,56,-1,58,-1,-1,-1,-1,-1,-1,-1,-1,-1,-1,-1,-1,-1,-1,-1,-1,-1,-1,-1,-1,-1,-1,-1],"split_conditions":[0E0,1E7,4.1786E2,1.4E1,1.151281E-1,4.5474735E-13,1E7,-9.927322E5,9.6803225E5,6.33158E3,-1.2163966E-1,6.807212E4,1.1522546E-1,5E1,3.1158245E6,9.3E1,0E0,6.013E3,2E0,2E0,4.5474735E-13,2.910383E-11,-1.2001041E-1,1.2E1,8E0,4.6E1,-2.2861661E5,-1.1522213E-1,2.5227544E5,2E0,-1.626331E-1,3.3216E4,4E0,1.9918E4,-1.15456045E-1,2.3508612E5,-1.1487501E-1,-1.2352451E-1,1.4206986E-1,-1.1059698E-1,-6.219685E-2,1.08001225E-1,-1.18566714E-1,-1.0872467E-1,-3.0807167E-2,-1.13657355E-1,-1.1637324E-1,-8.747151E-2,1.2606089E-1,1.19385675E-1,9.6616216E-2,1.18656114E-1,1.15624025E-1,-1.9301777E-1,1.154468E-1,-1.2540546E-1,-1.1632109E-1,-1.2494817E-1,-1.1836977E-1],"split_indices":[8,6,3,0,0,8,6,8,9,6,0,6,0,2,7,0,7,2,11,11,8,9,0,0,0,0,8,0,2,11,0,6,11,2,0,2,0,0,0,0,0,0,0,0,0,0,0,0,0,0,0,0,0,0,0,0,0,0,0],"split_type":[0,0,0,0,0,0,0,0,0,0,0,0,0,0,0,0,0,0,0,0,0,0,0,0,0,0,0,0,0,0,0,0,0,0,0,0,0,0,0,0,0,0,0,0,0,0,0,0,0,0,0,0,0,0,0,0,0,0,0],"sum_hessian":[6.750098E5,2.825728E5,3.9243697E5,2.818341E5,7.387041E2,3.3047884E5,6.1958152E4,1.4401726E4,2.6743238E5,3.3035284E5,1.2598996E2,5.974273E4,2.2154207E3,1.1460574E3,1.3255669E4,2.658996E5,1.532804E3,7.4976377E3,3.228552E5,5.410195E4,5.64078E3,8.0179144E2,3.4426587E2,1.2886442E4,3.6922668E2,4.611631E4,2.1978327E5,1.121712E3,4.110919E2,7.4835835E3,1.4054495E1,1.6386503E5,1.5899017E5,6.184776E3,4.7917176E4,3.911395E3,1.7293848E3,1.3753195E2,6.642595E2,7.825855E3,5.0605874E3,2.775093E2,9.171736E1,4.4648723E4,1.4675842E3,7.102631E4,1.4875695E5,2.4823167E0,4.0860956E2,3.663472E3,3.8201113E3,1.3315575E4,1.5054945E5,1.0998792E2,1.5888019E5,5.699553E2,5.614821E3,1.386868E3,2.5245269E3],"tree_param":{"num_deleted":"0","num_feature":"12","num_nodes":"59","size_leaf_vector":"1"}},{"base_weights":[1.2501682E-2,-8.830322E-1,8.7793297E-1,-9.752301E-1,-1.6001198E-1,9.5606303E-1,-7.3134935E-1,-1.1093644E0,-7.5740516E-1,1.1370609E0,-1.0063211E0,5.036173E-1,1.0748701E0,-1.1523226E0,1.1357462E-1,-1.3975762E-1,-1.1221759E0,-1.11539334E-1,-1.0174817E0,-1.1677885E-1,1.1456257E0,6.091456E-1,-1.0524839E0,9.3675447E-1,-1.0797502E0,9.1875637E-1,1.112874E0,-1.148042E0,-1.1869389E-1,9.700084E-1,-1.1668775E-1,-4.125757E-2,-1.1299281E0,-8.71088E-1,2.7879238E-1,-6.7917097E-1,-1.0973141E0,1.1481111E0,-1.1129556E-1,1.0746387E0,-1.1889762E-1,8.16377E-2,-1.0822146E0,7.8520256E-1,1.1225073E0,1.4220572E0,-1.1394843E-1,1.0541663E0,-1.1635039E0,1.0402642E0,1.1244466E0,-1.1568805E-1,-1.1323309E-1,1.13408886E-1,-1.2646587E-1,-1.1467083E-1,9.0409294E-2,-1.13197826E-1,-7.244681E-2,-1.1157846E-1,1.4188401E-1,7.098543E-2,-1.14816986E-1,1.1859794E-2,-1.1018705E-1,-1.0275298E-1,-1.13988355E-1,1.24414675E-1,1.143614E-1,-1.14668444E-1,1.2539165E-1,1.0798978E-1,-1.1484616E-1,-8.83084E-2,-1.1457391E-1,8.157286E-2,-1.1651587E-1,1.1345786E-1,-1.1371403E-1,-1.1177E-1,1.5608816E-1,1.05877034E-1,-1.2633577E-1,-1.286656E-1,-1.1442468E-1,1.1073051E-1,-1.17092095E-1,1.09691694E-1,1.13301575E-1],"categories":[],"categories_nodes":[],"categories_segments":[],"categories_sizes":[],"default_left":[0,0,0,0,0,0,0,0,0,0,0,0,0,0,0,0,0,0,0,0,0,0,0,0,0,0,0,0,0,0,0,0,0,0,0,0,0,0,0,0,0,0,0,0,0,0,0,0,0,0,0,0,0,0,0,0,0,0,0,0,0,0,0,0,0,0,0,0,0,0,0,0,0,0,0,0,0,0,0,0,0,0,0,0,0,0,0,0,0],"id":14,"left_children":[1,3,5,7,9,11,13,15,17,19,21,23,25,27,-1,29,31,33,35,-1,37,39,41,43,45,47,49,51,-1,53,-1,55,57,59,61,63,65,67,-1,69,-1,71,73,75,77,79,-1,81,83,85,87,-1,-1,-1,-1,-1,-1,-1,-1,-1,-1,-1,-1,-1,-1,-1,-1,-1,-1,-1,-1,-1,-1,-1,-1,-1,-1,-1,-1,-1,-1,-1,-1,-1,-1,-1,-1,-1,-1],"loss_changes":[4.8493053E5,2.049814E4,4.000867E4,7.9675625E3,3.817819E4,1.63118125E4,1.1581906E4,2.0965E3,1.7459207E4,2.724297E2,1.5701934E3,4.3286438E4,1.4249375E3,4.189453E-1,0E0,2.511368E3,1.3958125E3,8.847124E3,2.0005859E3,0E0,7.808203E1,4.912215E2,6.90041E2,1.3942617E3,2.0276787E3,1.32705E4,1.6123438E2,1.796875E-1,0E0,3.8975946E2,0E0,1.2417367E3,1.366875E2,5.6775767E3,1.2125555E4,4.7717803E3,1.7692188E2,4.4804688E0,0E0,1.8681598E2,0E0,6.4425006E2,2.5121875E2,1.6260215E3,6.0859766E2,1.13370605E2,0E0,4.728125E2,5.343506E0,3.9422676E3,3.809375E1,0E0,0E0,0E0,0E0,0E0,0E0,0E0,0E0,0E0,0E0,0E0,0E0,0E0,0E0,0E0,0E0,0E0,0E0,0E0,0E0,0E0,0E0,0E0,0E0,0E0,0E0,0E0,0E0,0E0,0E0,0E0,0E0,0E0,0E0,0E0,0E0,0E0,0E0],"parents":[2147483647,0,0,1,1,2,2,3,3,4,4,5,5,6,6,7,7,8,8,9,9,10,10,11,11,12,12,13,13,15,15,16,16,17,17,18,18,20,20,21,21,22,22,23,23,24,24,25,25,26,26,27,27,29,29,31,31,32,32,33,33,34,34,35,35,36,36,37,37,39,39,41,41,42,42,43,43,44,44,45,45,47,47,48,48,49,49,50,50],"right_children":[2,4,6,8,10,12,14,16,18,20,22,24,26,28,-1,30,32,34,36,-1,38,40,42,44,46,48,50,52,-1,54,-1,56,58,60,62,64,66,68,-1,70,-1,72,74,76,78,80,-1,82,84,86,88,-1,-1,-1,-1,-1,-1,-1,-1,-1,-1,-1,-1,-1,-1,-1,-1,-1,-1,-1,-1,-1,-1,-1,-1,-1,-1,-1,-1,-1,-1,-1,-1,-1,-1,-1,-1,-1,-1],"split_conditions":[3.0873E4,4E0,4.1786E2,9.2414E2,4.82391E3,1.0840435E5,1E7,1.7457E2,4.110546E4,0E0,9E0,1.0870651E5,2.17664E5,2.41907E5,1.1357462E-1,2E0,8E0,1.12961E3,3.9E1,-1.1677885E-1,9.2414E2,9.7872694E5,9.27337E3,4E0,-2.6466203E5,2.179639E5,3.2575025E5,2.443152E5,-1.1869389E-1,1.78E2,-1.1668775E-1,1.049E4,2.8991E4,3.861926E4,4.1786E2,4.5888656E5,5.7421656E5,7.5E1,-1.1129556E-1,2.6597453E5,-1.1889762E-1,1.4E1,2.0662619E5,2E0,1.2529409E5,-2.786606E5,-1.1394843E-1,2.3911398E5,2.3559155E5,3.2734797E5,5.7005256E5,-1.1568805E-1,-1.1323309E-1,1.13408886E-1,-1.2646587E-1,-1.1467083E-1,9.0409294E-2,-1.13197826E-1,-7.244681E-2,-1.1157846E-1,1.4188401E-1,7.098543E-2,-1.14816986E-1,1.1859794E-2,-1.1018705E-1,-1.0275298E-1,-1.13988355E-1,1.24414675E-1,1.143614E-1,-1.14668444E-1,1.2539165E-1,1.0798978E-1,-1.1484616E-1,-8.83084E-2,-1.1457391E-1,8.157286E-2,-1.1651587E-1,1.1345786E-1,-1.1371403E-1,-1.1177E-1,1.5608816E-1,1.05877034E-1,-1.2633577E-1,-1.286656E-1,-1.1442468E-1,1.1073051E-1,-1.17092095E-1,1.09691694E-1,1.13301575E-1],"split_indices":[6,11,3,7,5,6,6,1,1,7,0,1,2,1,0,11,0,6,0,0,7,5,1,11,7,1,2,2,0,2,0,6,6,1,3,5,5,6,0,7,0,0,7,11,5,7,0,7,1,1,2,0,0,0,0,0,0,0,0,0,0,0,0,0,0,0,0,0,0,0,0,0,0,0,0,0,0,0,0,0,0,0,0,0,0,0,0,0,0],"split_type":[0,0,0,0,0,0,0,0,0,0,0,0,0,0,0,0,0,0,0,0,0,0,0,0,0,0,0,0,0,0,0,0,0,0,0,0,0,0,0,0,0,0,0,0,0,0,0,0,0,0,0,0,0,0,0,0,0,0,0,0,0,0,0,0,0,0,0,0,0,0,0,0,0,0,0,0,0,0,0,0,0,0,0,0,0,0,0,0,0],"sum_hessian":[6.256962E5,3.0750016E5,3.1819606E5,2.727228E5,3.4777348E4,3.0346344E5,1.473263E4,1.6878355E5,1.0393926E5,1.3731614E4,2.1045732E4,6.3114277E4,2.4034914E5,1.202234E4,2.71029E3,2.2012266E3,1.6658233E5,2.983913E4,7.4100125E4,5.0337128E1,1.3681277E4,5.8434753E2,2.0461385E4,4.9557902E4,1.3556375E4,4.706002E4,1.9328912E5,1.0729654E4,1.2926857E3,1.0580728E3,1.1431538E3,1.1862291E3,1.653961E5,1.01286E4,1.9710531E4,1.4149105E4,5.995102E4,1.366673E4,1.454707E1,4.6450104E2,1.198465E2,5.226411E2,1.9938744E4,2.7294285E4,2.2263615E4,3.1559756E2,1.3240778E4,4.4187016E4,2.873001E3,2.658411E4,1.6670502E5,6.8202085E3,3.909446E3,9.861567E2,7.19161E1,5.467136E2,6.395155E2,1.6456219E5,8.3391254E2,9.151232E3,9.773671E2,1.5138071E4,4.57246E3,4.9006797E3,9.248426E3,2.2724213E4,3.722681E4,5.9901575E2,1.3067715E4,3.42861E1,4.3021494E2,2.8857584E2,2.3406528E2,4.825896E3,1.5112848E4,2.6874246E4,4.2003983E2,2.2145809E4,1.17807365E2,1.5991212E1,2.9960635E2,4.4099953E4,8.706453E1,3.795969E2,2.493404E3,2.580231E4,7.818005E2,3.960273E4,1.2710229E5],"tree_param":{"num_deleted":"0","num_feature":"12","num_nodes":"89","size_leaf_vector":"1"}},{"base_weights":[-7.1697715E-3,-8.4441346E-1,8.732163E-1,-9.443203E-1,-9.3386374E-2,9.456098E-1,-6.988207E-1,-6.9598943E-1,-1.1014248E0,1.093102E0,-9.272582E-1,5.2107555E-1,1.0643681E0,-1.1360335E-1,1.1210816E-1,-2.835563E-2,-1.0145828E0,-1.786589E-1,-1.1152552E0,-1.1545632E-1,1.1265247E0,4.6502903E-1,-1.0451915E0,9.0295744E-1,-1.1284721E0,9.496773E-1,1.1071293E0,-5.484898E-1,4.7076645E-1,-6.107865E-1,-1.102922E0,4.632116E-1,-1.1302842E-1,-7.7802753E-1,-1.1179336E0,-1.1150243E-1,1.129865E0,-4.1183215E-2,1.0598054E0,1.1084006E-1,-1.0603181E0,1.0781631E0,6.852653E-1,-1.1233938E-1,-1.1998583E0,1.0214097E0,-1.1333164E-1,1.0737805E0,1.1178076E0,-6.719827E-2,1.078793E-1,7.949287E-2,-1.1300429E-1,-8.883556E-2,1.1523286E-1,-1.1267483E-1,-1.05232835E-1,1.04666114E-1,-1.1494654E-1,1.1696084E-1,-1.14830256E-1,-1.1245183E-1,-1.0688082E-1,-7.2392754E-2,1.130082E-1,1.09530844E-1,-1.16248086E-1,-1.1843653E-1,1.3753848E-1,-1.12791575E-1,-6.398743E-2,8.927971E-2,1.1272495E-1,-8.4612995E-2,8.9095555E-2,-1.257468E-1,-1.1264656E-1,1.0910425E-1,8.507059E-2,1.10041074E-1,-1.2877944E-1,1.1079214E-1,1.12076245E-1],"categories":[],"categories_nodes":[],"categories_segments":[],"categories_sizes":[],"default_left":[0,0,0,0,0,0,0,0,0,0,0,0,0,0,0,0,0,0,0,0,0,0,0,0,0,0,0,0,0,0,0,0,0,0,0,0,0,0,0,0,0,0,0,0,0,0,0,0,0,0,0,0,0,0,0,0,0,0,0,0,0,0,0,0,0,0,0,0,0,0,0,0,0,0,0,0,0,0,0,0,0,0,0],"id":15,"left_children":[1,3,5,7,9,11,13,15,17,19,21,23,25,-1,-1,27,29,31,33,-1,35,37,39,41,43,45,47,49,51,53,55,57,-1,59,61,-1,63,65,67,-1,69,71,73,-1,75,77,-1,79,81,-1,-1,-1,-1,-1,-1,-1,-1,-1,-1,-1,-1,-1,-1,-1,-1,-1,-1,-1,-1,-1,-1,-1,-1,-1,-1,-1,-1,-1,-1,-1,-1,-1,-1],"loss_changes":[4.183536E5,2.182786E4,3.148561E4,1.00163125E4,3.379492E4,1.3333594E4,9.692672E3,2.116289E4,2.0068125E3,1.0603926E3,3.294211E3,3.641997E4,1.0125E3,0E0,0E0,8.344681E3,2.4018984E3,1.4197269E3,1.3907812E2,0E0,1.052793E2,4.7188528E2,6.036289E2,1.7898398E3,2.5947266E0,8.388523E3,5.2390625E1,3.1638403E3,8.512718E3,5.9188584E3,6.542969E1,1.3074308E3,0E0,8.8418207E2,4.8515625E1,0E0,6.3984375E0,1.081367E3,5.1195374E2,0E0,5.212285E2,2.356543E2,6.59596E3,0E0,1.5733643E0,6.4410156E2,0E0,2.2991133E3,2.09375E0,0E0,0E0,0E0,0E0,0E0,0E0,0E0,0E0,0E0,0E0,0E0,0E0,0E0,0E0,0E0,0E0,0E0,0E0,0E0,0E0,0E0,0E0,0E0,0E0,0E0,0E0,0E0,0E0,0E0,0E0,0E0,0E0,0E0,0E0],"parents":[2147483647,0,0,1,1,2,2,3,3,4,4,5,5,6,6,7,7,8,8,9,9,10,10,11,11,12,12,15,15,16,16,17,17,18,18,20,20,21,21,22,22,23,23,24,24,25,25,26,26,27,27,28,28,29,29,30,30,31,31,33,33,34,34,36,36,37,37,38,38,40,40,41,41,42,42,44,44,45,45,47,47,48,48],"right_children":[2,4,6,8,10,12,14,16,18,20,22,24,26,-1,-1,28,30,32,34,-1,36,38,40,42,44,46,48,50,52,54,56,58,-1,60,62,-1,64,66,68,-1,70,72,74,-1,76,78,-1,80,82,-1,-1,-1,-1,-1,-1,-1,-1,-1,-1,-1,-1,-1,-1,-1,-1,-1,-1,-1,-1,-1,-1,-1,-1,-1,-1,-1,-1,-1,-1,-1,-1,-1,-1],"split_conditions":[3.543888E4,4E0,4.1786E2,1.0000001E-2,9.2414E2,1.2401E5,2.7489755E6,4.110546E4,9E0,0E0,1.2E1,1.2425855E5,3.1745803E5,-1.1360335E-1,1.1210816E-1,7.85925E3,3.9E1,2E0,1.7457E2,-1.1545632E-1,1.0000001E-2,4.656613E-10,5.2259E2,5.06627E4,1.13516E5,3.1686584E5,5.7005256E5,3.861926E4,4.1786E2,3.7E1,2.2955533E5,5.965822E4,-1.1302842E-1,-6.58564E4,1.154E4,-1.1150243E-1,5E1,1.393611E4,9.2721975E5,1.1084006E-1,1E-2,4E0,5.2433E4,-1.1233938E-1,2.3559155E5,1.8208969E5,-1.1333164E-1,6.022179E5,9.205717E5,-6.719827E-2,1.078793E-1,7.949287E-2,-1.1300429E-1,-8.883556E-2,1.1523286E-1,-1.1267483E-1,-1.05232835E-1,1.04666114E-1,-1.1494654E-1,1.1696084E-1,-1.14830256E-1,-1.1245183E-1,-1.0688082E-1,-7.2392754E-2,1.130082E-1,1.09530844E-1,-1.16248086E-1,-1.1843653E-1,1.3753848E-1,-1.12791575E-1,-6.398743E-2,8.927971E-2,1.1272495E-1,-8.4612995E-2,8.9095555E-2,-1.257468E-1,-1.1264656E-1,1.0910425E-1,8.507059E-2,1.10041074E-1,-1.2877944E-1,1.1079214E-1,1.12076245E-1],"split_indices":[6,11,3,9,7,2,1,1,0,7,0,1,6,0,0,6,0,11,1,0,9,9,1,7,2,1,2,1,3,0,1,9,0,7,6,0,2,1,7,0,9,11,2,0,1,7,0,1,2,0,0,0,0,0,0,0,0,0,0,0,0,0,0,0,0,0,0,0,0,0,0,0,0,0,0,0,0,0,0,0,0,0,0],"split_type":[0,0,0,0,0,0,0,0,0,0,0,0,0,0,0,0,0,0,0,0,0,0,0,0,0,0,0,0,0,0,0,0,0,0,0,0,0,0,0,0,0,0,0,0,0,0,0,0,0,0,0,0,0,0,0,0,0,0,0,0,0,0,0,0,0,0,0,0,0,0,0,0,0,0,0,0,0,0,0,0,0,0,0],"sum_hessian":[5.6756675E5,2.9091128E5,2.7665544E5,2.5675561E5,3.415568E4,2.644765E5,1.2178949E4,9.949383E4,1.5726178E5,1.409709E4,2.005859E4,5.7813074E4,2.0666344E5,9.820138E3,2.3588113E3,3.214109E4,6.7352734E4,2.3224387E3,1.5493934E5,2.0606026E2,1.389103E4,1.5661475E3,1.8492441E4,4.6945348E4,1.0867726E4,5.6132473E4,1.5053095E5,1.57392E4,1.640189E4,1.2091359E4,5.526138E4,1.3872518E3,9.3518695E2,1.2231915E3,1.5371616E5,2.0174877E1,1.3870855E4,8.4656744E2,7.1958E2,1.284793E2,1.8363963E4,2.6008729E4,2.093662E4,1.0161579E4,7.0614575E2,5.4264273E4,1.868199E3,3.653462E4,1.13996336E5,1.4629564E4,1.1096356E3,1.3640256E4,2.761634E3,1.0447149E4,1.6442098E3,3.7554367E4,1.7707012E4,1.0189555E3,3.6829636E2,1.9505403E2,1.0281375E3,1.3552847E5,1.8187688E4,1.2327533E0,1.3869622E4,4.2044672E2,4.2612076E2,8.8374176E1,6.312059E2,1.581896E4,2.5450024E3,5.449363E3,2.0559365E4,2.4787603E3,1.845786E4,3.8657208E2,3.1957367E2,3.8538438E4,1.5725834E4,3.612776E4,4.068583E2,2.6317342E4,8.767899E4],"tree_param":{"num_deleted":"0","num_feature":"12","num_nodes":"83","size_leaf_vector":"1"}},{"base_weights":[5.931127E-4,-1.0273383E0,7.679168E-1,-1.0349382E0,1.107306E-1,-2.677648E-1,1.0317961E0,-6.1970264E-1,-1.0691123E0,-5.3818756E-1,1.0742639E0,1.0522873E0,-6.0027313E-1,-1.027312E0,-3.219341E-1,-9.008929E-1,-1.0888419E0,7.403608E-1,-1.11459844E-1,1.1046947E0,-1.1235149E-1,8.470349E-1,1.0816779E0,-1.10887386E-1,1.106988E-1,-1.1239087E-1,9.006224E-1,6.2891716E-1,-8.2449776E-1,-1.0581313E0,-1.9497798E-1,-1.092764E0,-4.1827455E-1,7.7832216E-1,-1.1102442E-1,8.606149E-1,1.1154719E-1,6.632853E-1,1.09076E0,1.0339793E0,1.1050689E0,1.3700232E-1,-1.2175798E-1,1.6002782E-1,-1.1633573E-1,3.4061113E-1,-1.01250015E-1,-1.1301571E-1,-7.223164E-2,-7.478879E-2,1.915098E-1,-1.07043944E-1,-1.1355739E-1,1.17578246E-1,-1.10731184E-1,7.9307534E-2,-1.1326375E-1,-1.159081E-1,1.1212023E-1,8.428133E-2,-1.126608E-1,1.1075341E-1,-1.1142951E-1,1.1075574E-1,9.629302E-2,-6.310653E-2,1.1050874E-1],"categories":[],"categories_nodes":[],"categories_segments":[],"categories_sizes":[],"default_left":[0,0,0,0,0,0,0,0,0,0,0,0,0,0,0,0,0,0,0,0,0,0,0,0,0,0,0,0,0,0,0,0,0,0,0,0,0,0,0,0,0,0,0,0,0,0,0,0,0,0,0,0,0,0,0,0,0,0,0,0,0,0,0,0,0,0,0],"id":16,"left_children":[1,3,5,7,-1,9,11,13,15,17,19,21,23,25,27,29,31,33,-1,35,-1,37,39,-1,-1,-1,41,43,45,47,49,51,53,55,-1,57,-1,59,61,63,65,-1,-1,-1,-1,-1,-1,-1,-1,-1,-1,-1,-1,-1,-1,-1,-1,-1,-1,-1,-1,-1,-1,-1,-1,-1,-1],"loss_changes":[4.1393138E5,3.6400781E3,8.212142E4,3.171E3,0E0,2.2143906E4,8.0093438E3,2.062833E3,6.843906E2,3.742635E4,6.8563574E2,1.4257656E3,2.5801401E3,1.3372808E3,4.6951445E3,2.4066484E3,4.8565625E2,1.109499E3,0E0,2.5591797E1,0E0,1.3261465E3,2.296875E2,0E0,0E0,0E0,3.426192E2,5.9168843E3,5.1157417E3,4.2811133E2,4.6113857E3,1.7440625E2,1.183582E3,4.3687988E2,0E0,2.2825217E2,0E0,5.4299116E3,4.7223633E2,3.5485938E2,5.140625E0,0E0,0E0,0E0,0E0,0E0,0E0,0E0,0E0,0E0,0E0,0E0,0E0,0E0,0E0,0E0,0E0,0E0,0E0,0E0,0E0,0E0,0E0,0E0,0E0,0E0,0E0],"parents":[2147483647,0,0,1,1,2,2,3,3,5,5,6,6,7,7,8,8,9,9,10,10,11,11,12,12,13,13,14,14,15,15,16,16,17,17,19,19,21,21,22,22,26,26,27,27,28,28,29,29,30,30,31,31,32,32,33,33,35,35,37,37,38,38,39,39,40,40],"right_children":[2,4,6,8,-1,10,12,14,16,18,20,22,24,26,28,30,32,34,-1,36,-1,38,40,-1,-1,-1,42,44,46,48,50,52,54,56,-1,58,-1,60,62,64,66,-1,-1,-1,-1,-1,-1,-1,-1,-1,-1,-1,-1,-1,-1,-1,-1,-1,-1,-1,-1,-1,-1,-1,-1,-1,-1],"split_conditions":[0E0,1E7,2.8991E4,1.6E1,1.107306E-1,4E0,4.5474735E-13,3.845089E4,3.9E1,2E0,1.96582E3,8.0554E4,1E7,7.325287E4,4.537246E4,3.7E1,9.6803225E5,4.5474735E-13,-1.11459844E-1,2.910383E-11,-1.1235149E-1,4E0,3.1745803E5,-1.10887386E-1,1.106988E-1,-1.1239087E-1,8.0554E4,5E0,4.15166E4,1.9052804E6,4.0700122E5,5E0,1.96582E3,4.852858E6,-1.1102442E-1,9.000748E4,1.1154719E-1,2E0,1.96582E3,1.399076E4,-1.0377576E5,1.3700232E-1,-1.2175798E-1,1.6002782E-1,-1.1633573E-1,3.4061113E-1,-1.01250015E-1,-1.1301571E-1,-7.223164E-2,-7.478879E-2,1.915098E-1,-1.07043944E-1,-1.1355739E-1,1.17578246E-1,-1.10731184E-1,7.9307534E-2,-1.1326375E-1,-1.159081E-1,1.1212023E-1,8.428133E-2,-1.126608E-1,1.1075341E-1,-1.1142951E-1,1.1075574E-1,9.629302E-2,-6.310653E-2,1.1050874E-1],"split_indices":[8,6,6,0,0,11,8,7,0,11,4,6,6,6,4,0,9,8,0,9,0,11,6,0,0,0,6,6,7,4,7,6,4,5,0,5,0,11,4,5,7,0,0,0,0,0,0,0,0,0,0,0,0,0,0,0,0,0,0,0,0,0,0,0,0,0,0],"split_type":[0,0,0,0,0,0,0,0,0,0,0,0,0,0,0,0,0,0,0,0,0,0,0,0,0,0,0,0,0,0,0,0,0,0,0,0,0,0,0,0,0,0,0,0,0,0,0,0,0,0,0,0,0,0,0,0,0,0,0,0,0,0,0,0,0,0,0],"sum_hessian":[5.2478806E5,2.2430353E5,3.0048453E5,2.2350828E5,7.9523816E2,6.1014168E4,2.3947036E5,1.6997502E4,2.0651078E5,5.0782035E4,1.0232132E4,2.3650133E5,2.969023E3,7.174299E3,9.823203E3,2.168296E4,1.8482783E5,1.5779942E4,3.5002094E4,1.0092882E4,1.3925047E2,2.9626977E4,2.0687436E5,2.2878213E3,6.8120166E2,6.832388E3,3.419106E2,3.3965925E3,6.4266104E3,1.7732623E4,3.950338E3,1.8375242E5,1.0754003E3,1.5463323E4,3.1661896E2,4.3021677E2,9.662665E3,1.6893973E4,1.2733005E4,6.808406E4,1.387903E5,2.801759E2,6.17347E1,2.2028296E3,1.193763E3,2.727101E2,6.1539E3,1.4599048E4,3.1335764E3,3.1306494E3,8.196884E2,1.2078921E5,6.2963207E4,3.2434232E2,7.510579E2,1.5345437E4,1.178863E2,4.8770523E1,3.8144626E2,1.53544375E4,1.5395354E3,1.2637369E4,9.563612E1,3.3439605E4,3.4644457E4,1.1098624E0,1.3878919E5],"tree_param":{"num_deleted":"0","num_feature":"12","num_nodes":"67","size_leaf_vector":"1"}},{"base_weights":[6.7941183E-3,-8.178266E-1,8.2562286E-1,-9.1391844E-1,-8.7214634E-2,3.7141538E-1,1.0215904E0,-6.6750324E-1,-1.0707389E0,1.0943565E0,-9.118094E-1,6.066847E-1,-1.1153105E0,8.495589E-1,1.0737168E0,-2.4292957E-2,-9.2778254E-1,-2.539494E-2,-1.0889449E0,-1.10879265E-1,1.1020238E0,3.291744E-1,-1.0079582E0,7.2293425E-1,-1.1210635E0,-1.1017888E-1,-1.2129816E0,9.107128E-1,-1.1106437E-1,1.0380132E0,1.0908054E0,-9.8871166E-1,2.7539706E-1,-3.4304902E-1,-1.0759301E0,5.5583155E-1,-1.1044069E-1,-7.466402E-1,-1.0917058E0,-1.0985988E-1,1.1045603E0,-1.1427491E-1,7.4757767E-1,-1.085453E0,-5.615031E-1,4.872777E-1,1.0611807E0,-1.1424198E-1,-1.1059853E-1,-1.3105541E-1,-1.1127367E-1,9.7286975E-1,-1.1366834E-1,1.0557196E0,-1.2610954E0,-1.1780154E-1,1.0947623E0,7.7553846E-2,-1.1223127E-1,5.2488532E-2,-1.1156032E-1,-5.9187174E-2,1.06621124E-1,-9.259132E-2,-1.1018657E-1,9.398086E-2,-1.1159225E-1,1.12608485E-1,-1.11931026E-1,-1.09998636E-1,-1.02663614E-1,1.16950564E-1,1.10166945E-1,1.129933E-1,-1.17187E-1,9.3313545E-2,-1.10333145E-1,6.877202E-2,-1.1177683E-1,5.5737775E-2,-1.1138465E-1,1.10098936E-1,-1.1236792E-1,1.0973479E-1,8.7072484E-2,6.2064882E-2,1.06256835E-1,-1.1522116E-1,-1.3237207E-1,1.055E-1,1.0953748E-1],"categories":[],"categories_nodes":[],"categories_segments":[],"categories_sizes":[],"default_left":[0,0,0,0,0,0,0,0,0,0,0,0,0,0,0,0,0,0,0,0,0,0,0,0,0,0,0,0,0,0,0,0,0,0,0,0,0,0,0,0,0,0,0,0,0,0,0,0,0,0,0,0,0,0,0,0,0,0,0,0,0,0,0,0,0,0,0,0,0,0,0,0,0,0,0,0,0,0,0,0,0,0,0,0,0,0,0,0,0,0,0],"id":17,"left_children":[1,3,5,7,9,11,13,15,17,19,21,23,25,27,29,31,33,35,37,-1,39,41,43,45,47,-1,49,51,-1,53,55,57,59,61,63,65,-1,67,69,-1,71,-1,73,75,77,79,81,-1,-1,-1,-1,83,-1,85,87,-1,89,-1,-1,-1,-1,-1,-1,-1,-1,-1,-1,-1,-1,-1,-1,-1,-1,-1,-1,-1,-1,-1,-1,-1,-1,-1,-1,-1,-1,-1,-1,-1,-1,-1,-1],"loss_changes":[3.296329E5,1.7076203E4,2.1802781E4,8.3059375E3,2.7547963E4,2.5825668E4,1.5335781E3,1.399607E4,2.4999531E3,1.9753516E2,1.9872988E3,1.2804027E4,1.1986328E1,4.771742E3,7.8984375E1,6.9615205E3,5.1554297E3,1.4114807E3,1.21203125E2,0E0,6.58584E1,7.387648E2,5.341133E2,4.760332E3,3.125E-2,0E0,1.0443726E1,4.912633E3,0E0,1.7326719E3,7.9846875E2,1.3468042E3,6.3777275E3,4.219918E3,1.8374219E2,9.4000525E2,0E0,7.244154E2,6.7875E1,0E0,8.8378906E-1,0E0,6.864909E2,4.7626562E2,1.5906973E3,3.9518545E3,2.1342773E3,0E0,0E0,0E0,0E0,4.753125E2,0E0,1.2509375E2,6.942749E-1,0E0,1E0,0E0,0E0,0E0,0E0,0E0,0E0,0E0,0E0,0E0,0E0,0E0,0E0,0E0,0E0,0E0,0E0,0E0,0E0,0E0,0E0,0E0,0E0,0E0,0E0,0E0,0E0,0E0,0E0,0E0,0E0,0E0,0E0,0E0,0E0],"parents":[2147483647,0,0,1,1,2,2,3,3,4,4,5,5,6,6,7,7,8,8,9,9,10,10,11,11,12,12,13,13,14,14,15,15,16,16,17,17,18,18,20,20,21,21,22,22,23,23,24,24,26,26,27,27,29,29,30,30,31,31,32,32,33,33,34,34,35,35,37,37,38,38,40,40,42,42,43,43,44,44,45,45,46,46,51,51,53,53,54,54,56,56],"right_children":[2,4,6,8,10,12,14,16,18,20,22,24,26,28,30,32,34,36,38,-1,40,42,44,46,48,-1,50,52,-1,54,56,58,60,62,64,66,-1,68,70,-1,72,-1,74,76,78,80,82,-1,-1,-1,-1,84,-1,86,88,-1,90,-1,-1,-1,-1,-1,-1,-1,-1,-1,-1,-1,-1,-1,-1,-1,-1,-1,-1,-1,-1,-1,-1,-1,-1,-1,-1,-1,-1,-1,-1,-1,-1,-1,-1],"split_conditions":[3.0873E4,4E0,1.53072E5,1.0000001E-2,4.82391E3,1.5491438E5,3.1745803E5,3.120211E4,9E0,0E0,1.2E1,1.54565E5,1.2401E5,3.1686584E5,7.095157E5,7.5E1,3.9E1,2E0,1.7457E2,-1.10879265E-1,2.910383E-11,9.2721975E5,1E-2,4E0,2.3508612E5,-1.1017888E-1,2.3559155E5,3.2575025E5,-1.1106437E-1,7.8699606E5,7.0660644E5,1.7457E2,3.0901E4,4.038979E5,2.3471464E5,1.0074707E5,-1.1044069E-1,-6.58564E4,1.154E4,-1.0985988E-1,7.5E1,-1.1427491E-1,3.2550892E6,5.2259E2,2.044543E5,2E0,9.2414E2,-1.1424198E-1,-1.1059853E-1,-1.3105541E-1,-1.1127367E-1,4.82391E3,-1.1366834E-1,2.2E1,4.312083E5,-1.1780154E-1,1.3E1,7.7553846E-2,-1.1223127E-1,5.2488532E-2,-1.1156032E-1,-5.9187174E-2,1.06621124E-1,-9.259132E-2,-1.1018657E-1,9.398086E-2,-1.1159225E-1,1.12608485E-1,-1.11931026E-1,-1.09998636E-1,-1.02663614E-1,1.16950564E-1,1.10166945E-1,1.129933E-1,-1.17187E-1,9.3313545E-2,-1.10333145E-1,6.877202E-2,-1.1177683E-1,5.5737775E-2,-1.1138465E-1,1.10098936E-1,-1.1236792E-1,1.0973479E-1,8.7072484E-2,6.2064882E-2,1.06256835E-1,-1.1522116E-1,-1.3237207E-1,1.055E-1,1.0953748E-1],"split_indices":[6,11,6,9,5,1,6,1,0,7,0,2,2,1,2,6,0,11,1,0,9,7,9,11,2,0,1,2,0,1,1,1,2,1,5,9,0,7,6,0,6,0,5,1,1,11,7,0,0,0,0,5,0,0,2,0,0,0,0,0,0,0,0,0,0,0,0,0,0,0,0,0,0,0,0,0,0,0,0,0,0,0,0,0,0,0,0,0,0,0,0],"split_type":[0,0,0,0,0,0,0,0,0,0,0,0,0,0,0,0,0,0,0,0,0,0,0,0,0,0,0,0,0,0,0,0,0,0,0,0,0,0,0,0,0,0,0,0,0,0,0,0,0,0,0,0,0,0,0,0,0,0,0,0,0,0,0,0,0,0,0,0,0,0,0,0,0,0,0,0,0,0,0,0,0,0,0,0,0,0,0,0,0,0,0],"sum_hessian":[4.881816E5,2.4323056E5,2.4495105E5,2.1495847E5,2.8272092E4,7.383089E4,1.7112016E5,8.360052E4,1.3135795E5,1.1620548E4,1.6651543E4,6.374418E4,1.0086706E4,3.97969E4,1.3132327E5,2.408414E4,5.9516383E4,2.2486472E3,1.291093E5,3.9802963E1,1.1580745E4,1.1971835E3,1.5454359E4,5.9726156E4,4.0180244E3,8.870877E3,1.2158293E3,3.8593406E4,1.2034908E3,4.2528914E4,8.879435E4,5.70923E3,1.837491E4,1.2031554E4,4.748483E4,1.4617421E3,7.869052E2,1.0351743E3,1.28074125E5,1.2834985E1,1.156791E4,2.6460037E2,9.3258307E2,1.3167361E4,2.2869983E3,3.520279E4,2.452337E4,1.6318848E3,2.3861396E3,6.1000885E2,6.058205E2,3.7456777E4,1.1366278E3,4.220442E4,3.2449152E2,1.540758E2,8.864027E4,4.015683E2,5.3076616E3,1.5580952E4,2.793959E3,1.0226514E4,1.8050403E3,7.004725E3,4.04801E4,1.1890685E3,2.7267355E2,1.7147319E2,8.6370105E2,1.1360161E5,1.4472519E4,4.7576355E2,1.1092146E4,7.780136E2,1.545695E2,1.151486E2,1.3052213E4,7.04544E2,1.5824545E3,3.372682E4,1.4759679E3,2.408503E4,4.3833887E2,1.6878365E4,2.0578414E4,6.554929E2,4.154893E4,1.2556893E2,1.9892258E2,1.3709945E3,8.726928E4],"tree_param":{"num_deleted":"0","num_feature":"12","num_nodes":"91","size_leaf_vector":"1"}},{"base_weights":[2.726765E-3,-1.0182124E0,7.507645E-1,-7.541065E-1,-1.075375E0,1.0884879E0,-1.0238597E0,-8.75091E-1,-1.00187294E-1,-1.0793205E0,1.0833992E-1,1.0894833E0,-1.179495E-1,-1.0988292E0,1.086419E-1,-7.069845E-1,-1.0701884E0,1.3370578E0,-8.812941E-1,-1.0832143E0,-4.0696046E-1,9.5423883E-1,1.0908722E0,-1.1285183E0,-1.08906925E-1,-7.8590953E-1,5.117358E0,-1.1191068E0,-7.6250094E-1,2.3372805E0,-7.7916E-1,6.369959E-1,-1.1345961E0,-1.0431443E0,-1.1051275E0,1.1343514E-1,-1.0854944E-1,1.1171588E0,6.4161944E-1,1.0430099E0,1.0916865E0,-1.1363893E0,-1.09373204E-1,-1.10175386E-1,-5.8718007E-2,-1.11808896E-1,7.042011E-1,-1.1464182E-1,-1.0936735E-1,-1.0895949E-1,1.1299216E-1,1.3490061E-1,3.8918433E-1,-1.1326474E-1,1.0762457E-1,1.20927E-1,-1.1815398E-1,-1.1240902E-1,-1.299095E-1,-1.0658143E-1,3.2972105E-2,-1.0955518E-1,-1.1751719E-1,1.16630234E-1,1.01617575E-1,-1.5432578E-1,8.5095935E-2,1.0507711E-1,-1.5460555E-1,1.0998436E-1,1.0889261E-1,-1.1313535E-1,-1.2044104E-1],"categories":[],"categories_nodes":[],"categories_segments":[],"categories_sizes":[],"default_left":[0,0,0,0,0,0,0,0,0,0,0,0,0,0,0,0,0,0,0,0,0,0,0,0,0,0,0,0,0,0,0,0,0,0,0,0,0,0,0,0,0,0,0,0,0,0,0,0,0,0,0,0,0,0,0,0,0,0,0,0,0,0,0,0,0,0,0,0,0,0,0,0,0],"id":18,"left_children":[1,3,5,7,9,11,13,15,17,19,-1,21,-1,23,-1,25,27,29,31,33,35,37,39,41,-1,43,45,47,49,51,53,55,57,59,61,-1,-1,63,65,67,69,71,-1,-1,-1,-1,-1,-1,-1,-1,-1,-1,-1,-1,-1,-1,-1,-1,-1,-1,-1,-1,-1,-1,-1,-1,-1,-1,-1,-1,-1,-1,-1],"loss_changes":[3.4303216E5,2.8666719E3,1.5536734E5,2.6738594E3,1.3311094E3,4.9298438E2,6.5583203E3,9.3466797E2,5.926541E3,4.0759375E2,0E0,3.9828125E1,0E0,1.03671875E1,0E0,7.0480186E3,1.9781445E2,3.9364482E3,1.316081E3,1.3490625E2,9.414413E2,1.1239282E2,7.265625E0,1.4619141E0,0E0,9.483662E2,2.4681387E3,6.654297E0,1.123946E3,1.9343843E3,3.9299957E2,5.1101758E2,3.605957E0,1.7059062E3,6.5890625E1,0E0,0E0,6.0533447E0,3.5038474E2,7.45083E1,3.578125E0,1.3867188E0,0E0,0E0,0E0,0E0,0E0,0E0,0E0,0E0,0E0,0E0,0E0,0E0,0E0,0E0,0E0,0E0,0E0,0E0,0E0,0E0,0E0,0E0,0E0,0E0,0E0,0E0,0E0,0E0,0E0,0E0,0E0],"parents":[2147483647,0,0,1,1,2,2,3,3,4,4,5,5,6,6,7,7,8,8,9,9,11,11,13,13,15,15,16,16,17,17,18,18,19,19,20,20,21,21,22,22,23,23,25,25,26,26,27,27,28,28,29,29,30,30,31,31,32,32,33,33,34,34,37,37,38,38,39,39,40,40,41,41],"right_children":[2,4,6,8,10,12,14,16,18,20,-1,22,-1,24,-1,26,28,30,32,34,36,38,40,42,-1,44,46,48,50,52,54,56,58,60,62,-1,-1,64,66,68,70,72,-1,-1,-1,-1,-1,-1,-1,-1,-1,-1,-1,-1,-1,-1,-1,-1,-1,-1,-1,-1,-1,-1,-1,-1,-1,-1,-1,-1,-1,-1,-1],"split_conditions":[0E0,3.9E1,4.1786E2,4.038979E5,1E7,4.5474735E-13,1E7,4.654E3,1.96582E3,9.6803225E5,1.0833992E-1,1.21299E3,-1.179495E-1,1.0000001E-2,1.086419E-1,4.26863E3,3.8802094E5,5E1,-1.7794801E6,-2.0187277E5,1.96582E3,2.32E2,6.33158E3,4.5474735E-13,-1.08906925E-1,3.861926E4,1.9052804E6,4.1786E2,7.325287E4,3.8E1,3.4652832E6,1.2917399E6,3.1745803E5,-2.0508792E5,3.3216E4,1.1343514E-1,-1.0854944E-1,9.313226E-10,3.53E2,3.21E2,1.2035209E5,2.41907E5,-1.09373204E-1,-1.10175386E-1,-5.8718007E-2,-1.11808896E-1,7.042011E-1,-1.1464182E-1,-1.0936735E-1,-1.0895949E-1,1.1299216E-1,1.3490061E-1,3.8918433E-1,-1.1326474E-1,1.0762457E-1,1.20927E-1,-1.1815398E-1,-1.1240902E-1,-1.299095E-1,-1.0658143E-1,3.2972105E-2,-1.0955518E-1,-1.1751719E-1,1.16630234E-1,1.01617575E-1,-1.5432578E-1,8.5095935E-2,1.0507711E-1,-1.5460555E-1,1.0998436E-1,1.0889261E-1,-1.1313535E-1,-1.2044104E-1],"split_indices":[8,0,3,1,6,8,6,2,4,9,0,1,0,9,0,6,9,2,8,8,4,2,6,8,0,1,4,3,6,0,2,4,6,8,6,0,0,9,6,0,1,1,0,0,0,0,0,0,0,0,0,0,0,0,0,0,0,0,0,0,0,0,0,0,0,0,0,0,0,0,0,0,0],"split_type":[0,0,0,0,0,0,0,0,0,0,0,0,0,0,0,0,0,0,0,0,0,0,0,0,0,0,0,0,0,0,0,0,0,0,0,0,0,0,0,0,0,0,0,0,0,0,0,0,0,0,0,0,0,0,0,0,0,0,0,0,0,0,0,0,0,0,0,0,0,0,0,0,0],"sum_hessian":[4.491687E5,1.8993738E5,2.5923131E5,3.3797598E4,1.5613978E5,2.177856E5,4.1445727E4,2.8520547E4,5.2770522E3,1.5585542E5,2.8435443E2,2.1769056E5,9.5032135E1,4.0024312E4,1.4214165E3,1.532248E4,1.3198065E4,1.8578591E3,3.419193E3,1.5495742E5,8.980065E2,2.2197969E3,2.1547077E5,9.873839E3,3.0150473E4,1.5118478E4,2.0400378E2,1.1385309E4,1.8127565E3,1.2615077E3,5.9635156E2,4.886593E2,2.9305337E3,5.479977E4,1.0015765E5,2.7428574E2,6.2372076E2,1.457602E3,7.6219476E2,3.6261296E3,2.1184462E5,8.0261436E3,1.8476956E3,5.8370317E3,9.281445E3,4.8215458E1,1.5578831E2,5.4686865E3,5.916622E3,1.5459692E3,2.667873E2,7.723642E2,4.8914346E2,5.012451E2,9.510647E1,3.7194666E2,1.1671268E2,2.7619705E3,1.6856332E2,5.3909785E4,8.899825E2,8.812665E4,1.2030998E4,9.7336365E2,4.842384E2,6.608582E1,6.961089E2,3.6158848E3,1.0245081E1,5.3462137E4,1.583825E5,7.48932E3,5.36824E2],"tree_param":{"num_deleted":"0","num_feature":"12","num_nodes":"73","size_leaf_vector":"1"}},{"base_weights":[-9.085996E-4,-1.0050534E0,7.421742E-1,-5.306506E-1,-1.0469368E0,1.0782764E0,-1.0048765E0,-1.2175037E-1,-9.929025E-1,-1.0515337E0,1.0751464E-1,1.0792923E0,-1.1610937E-1,-1.0886008E0,1.0774735E-1,-1.0950231E-1,2.43949E-1,-1.1075392E0,-4.2799902E-1,-9.9124E-1,-1.0930761E0,8.9716953E-1,1.0809783E0,-1.1150266E0,-1.0798985E-1,1.7553487E0,-2.2057177E-1,-1.10145144E-1,-1.1769737E-1,-1.0865202E-1,1.1089268E0,-1.0584638E0,-8.1360775E-1,-5.5432093E-1,-1.0954424E0,1.0093883E0,-2.5728857E-2,1.0431155E0,1.0824366E0,-1.1219532E0,-1.0839732E-1,-1.18862405E-1,1.9772957E-1,3.1362787E-1,-4.663972E-2,-1.1921387E-1,1.2179736E-1,-1.0266669E-1,-1.0887027E-1,3.2031694E-1,-9.439197E-2,1.07891716E-1,-1.0860761E-1,-1.0857772E-1,-1.1399666E-1,1.0160839E-1,-1.582846E-1,1.025008E-1,-1.5003751E-1,1.0489465E-1,-1.6327624E-1,1.15073696E-1,1.0817837E-1,-1.1175435E-1,-1.1808547E-1],"categories":[],"categories_nodes":[],"categories_segments":[],"categories_sizes":[],"default_left":[0,0,0,0,0,0,0,0,0,0,0,0,0,0,0,0,0,0,0,0,0,0,0,0,0,0,0,0,0,0,0,0,0,0,0,0,0,0,0,0,0,0,0,0,0,0,0,0,0,0,0,0,0,0,0,0,0,0,0,0,0,0,0,0,0],"id":19,"left_children":[1,3,5,7,9,11,13,15,17,19,-1,21,-1,23,-1,-1,25,27,29,31,33,35,37,39,-1,41,43,-1,-1,-1,45,47,49,51,53,55,57,59,61,63,-1,-1,-1,-1,-1,-1,-1,-1,-1,-1,-1,-1,-1,-1,-1,-1,-1,-1,-1,-1,-1,-1,-1,-1,-1],"loss_changes":[3.0597894E5,3.4647188E3,1.3838377E5,2.6744597E3,1.5643906E3,4.5090625E2,6.6304453E3,2.673082E3,4.2962744E2,3.994375E2,0E0,5.9703125E1,0E0,7.203125E0,0E0,0E0,3.8332454E3,1.0371094E0,1.1368329E3,7.781914E2,1.20078125E2,1.8829651E2,9.671875E0,7.2558594E-1,0E0,8.4102734E2,3.4481287E3,0E0,0E0,0E0,8.602664E1,4.4382812E1,9.380833E3,3.6244165E2,3.93125E1,2.9740112E1,3.0841513E2,1.1541455E2,7.15625E0,5.8984375E-1,0E0,0E0,0E0,0E0,0E0,0E0,0E0,0E0,0E0,0E0,0E0,0E0,0E0,0E0,0E0,0E0,0E0,0E0,0E0,0E0,0E0,0E0,0E0,0E0,0E0],"parents":[2147483647,0,0,1,1,2,2,3,3,4,4,5,5,6,6,7,7,8,8,9,9,11,11,13,13,16,16,17,17,18,18,19,19,20,20,21,21,22,22,23,23,25,25,26,26,30,30,31,31,32,32,33,33,34,34,35,35,36,36,37,37,38,38,39,39],"right_children":[2,4,6,8,10,12,14,16,18,20,-1,22,-1,24,-1,-1,26,28,30,32,34,36,38,40,-1,42,44,-1,-1,-1,46,48,50,52,54,56,58,60,62,64,-1,-1,-1,-1,-1,-1,-1,-1,-1,-1,-1,-1,-1,-1,-1,-1,-1,-1,-1,-1,-1,-1,-1,-1,-1],"split_conditions":[0E0,1.6E1,4.1786E2,5E1,1E7,4.5474735E-13,1E7,3.845089E4,3.8802094E5,5E1,1.0751464E-1,1.21299E3,-1.1610937E-1,1.0000001E-2,1.0774735E-1,-1.0950231E-1,2.2507555E5,1.2092173E5,-4.436943E4,2.018777E5,-2.671123E6,5.34E2,1.127348E4,4.5474735E-13,-1.0798985E-1,9.393366E4,4.15166E4,-1.10145144E-1,-1.1769737E-1,-1.0865202E-1,-2.786606E5,4.122768E4,4.1199938E5,4.82391E3,3.3216E4,1.0803821E6,1E1,1.0791E4,0E0,2.41907E5,-1.0839732E-1,-1.18862405E-1,1.9772957E-1,3.1362787E-1,-4.663972E-2,-1.1921387E-1,1.2179736E-1,-1.0266669E-1,-1.0887027E-1,3.2031694E-1,-9.439197E-2,1.07891716E-1,-1.0860761E-1,-1.0857772E-1,-1.1399666E-1,1.0160839E-1,-1.582846E-1,1.025008E-1,-1.5003751E-1,1.0489465E-1,-1.6327624E-1,1.15073696E-1,1.0817837E-1,-1.1175435E-1,-1.1808547E-1],"split_indices":[8,0,3,2,6,8,6,7,9,2,0,1,0,9,0,0,5,6,8,1,8,2,1,8,0,1,7,0,0,0,7,5,5,5,6,5,0,2,7,1,0,0,0,0,0,0,0,0,0,0,0,0,0,0,0,0,0,0,0,0,0,0,0,0,0],"split_type":[0,0,0,0,0,0,0,0,0,0,0,0,0,0,0,0,0,0,0,0,0,0,0,0,0,0,0,0,0,0,0,0,0,0,0,0,0,0,0,0,0,0,0,0,0,0,0,0,0,0,0,0,0,0,0,0,0,0,0,0,0,0,0,0,0],"sum_hessian":[4.10068E5,1.743987E5,2.3566931E5,1.41491E4,1.602496E5,1.9764603E5,3.802328E4,7.5084844E3,6.6406147E3,1.5990372E5,3.458843E2,1.9755692E5,8.9107666E1,3.6554043E4,1.4692377E3,2.0501687E3,5.458316E3,5.5195615E3,1.1210532E3,6.5240293E4,9.466342E4,1.8168721E3,1.9574005E5,9.023959E3,2.7530084E4,1.2825466E3,4.175769E3,5.090134E3,4.294277E2,7.850001E2,3.3605313E2,4.732536E4,1.7914934E4,4.1497812E2,9.4248445E4,1.6198185E3,1.9705362E2,7.28617E3,1.8845388E5,7.349471E3,1.6744874E3,8.960768E1,1.192939E3,2.8412762E2,3.8916414E3,1.475551E1,3.2129764E2,2.3085445E4,2.4239916E4,5.621912E2,1.7352742E4,1.0167219E2,3.1330594E2,7.745917E4,1.6789277E4,1.6162518E3,3.56665E0,1.15243515E2,8.1810104E1,7.2709336E3,1.5236038E1,1.767892E3,1.8668598E5,6.85614E3,4.9333112E2],"tree_param":{"num_deleted":"0","num_feature":"12","num_nodes":"65","size_leaf_vector":"1"}},{"base_weights":[5.4668514E-3,-9.781695E-1,7.365942E-1,-7.3352593E-1,-1.0323807E0,1.0688672E0,-1.0346293E0,-4.8632416E-1,-1.0551583E0,-1.037454E0,1.0668937E-1,1.0698798E0,-1.14112355E-1,-1.079437E0,1.06870614E-1,-5.5268025E-1,3.3731465E0,-6.405278E-1,-1.0973841E0,-1.041585E0,-3.428423E-1,9.765595E-1,1.0730653E0,-1.1058005E0,-1.07202664E-1,-7.201625E-1,5.629089E-1,-1.10441744E-1,4.088799E0,-1.0753443E-1,1.2239949E0,-1.1186925E0,-1.0751023E-1,-9.792174E-1,-1.084684E0,-1.0685016E-1,1.1244739E0,1.117072E0,7.982739E-1,1.1451721E0,1.072506E0,-1.1131061E0,-1.0752135E-1,-4.026241E-2,-1.0883738E-1,-1.0956234E-1,1.3703999E-1,4.384732E-1,-1.04013E-1,-8.988255E-2,1.264348E-1,-1.0989036E-1,-1.15680434E-1,-8.906055E-2,-1.0743034E-1,-1.0759153E-1,-1.1244513E-1,-7.159015E-2,1.136503E-1,1.1200973E-1,-2.4062188E-1,-1.4661187E-1,1.08097665E-1,1.2412452E-1,1.0808015E-1,1.0766476E-1,1.0681506E-1,-1.1497214E-1,-1.1049316E-1],"categories":[],"categories_nodes":[],"categories_segments":[],"categories_sizes":[],"default_left":[0,0,0,0,0,0,0,0,0,0,0,0,0,0,0,0,0,0,0,0,0,0,0,0,0,0,0,0,0,0,0,0,0,0,0,0,0,0,0,0,0,0,0,0,0,0,0,0,0,0,0,0,0,0,0,0,0,0,0,0,0,0,0,0,0,0,0,0,0],"id":20,"left_children":[1,3,5,7,9,11,13,15,17,19,-1,21,-1,23,-1,25,27,29,31,33,35,37,39,41,-1,43,45,-1,47,-1,49,51,-1,53,55,-1,57,59,61,63,65,67,-1,-1,-1,-1,-1,-1,-1,-1,-1,-1,-1,-1,-1,-1,-1,-1,-1,-1,-1,-1,-1,-1,-1,-1,-1,-1,-1],"loss_changes":[2.698862E5,2.1213438E3,1.2669386E5,2.3074746E3,1.3960938E3,4.0684375E2,3.2059727E3,4.2057764E3,2.2014844E2,3.7457812E2,0E0,5.2796875E1,0E0,5.3242188E0,0E0,3.0157578E3,8.940427E2,9.4848206E2,4.2314453E0,3.4807812E2,8.253272E2,1.4921094E2,5.828125E0,4.2773438E-1,0E0,1.6402476E3,2.8235225E3,0E0,3.681621E2,0E0,2.0101929E1,3.1235352E0,0E0,4.46375E2,2.5570312E1,0E0,6.4943237E0,3.838623E1,1.6944226E3,6.907959E0,1.984375E0,4.7851562E-1,0E0,0E0,0E0,0E0,0E0,0E0,0E0,0E0,0E0,0E0,0E0,0E0,0E0,0E0,0E0,0E0,0E0,0E0,0E0,0E0,0E0,0E0,0E0,0E0,0E0,0E0,0E0],"parents":[2147483647,0,0,1,1,2,2,3,3,4,4,5,5,6,6,7,7,8,8,9,9,11,11,13,13,15,15,16,16,17,17,18,18,19,19,20,20,21,21,22,22,23,23,25,25,26,26,28,28,30,30,31,31,33,33,34,34,36,36,37,37,38,38,39,39,40,40,41,41],"right_children":[2,4,6,8,10,12,14,16,18,20,-1,22,-1,24,-1,26,28,30,32,34,36,38,40,42,-1,44,46,-1,48,-1,50,52,-1,54,56,-1,58,60,62,64,66,68,-1,-1,-1,-1,-1,-1,-1,-1,-1,-1,-1,-1,-1,-1,-1,-1,-1,-1,-1,-1,-1,-1,-1,-1,-1,-1,-1],"split_conditions":[0E0,3.9E1,4.1786E2,4.654E3,1E7,4.5474735E-13,2.7489755E6,4.26863E3,-2.6466203E5,9.6803225E5,1.0668937E-1,7.07145E3,-1.14112355E-1,2E0,1.06870614E-1,3.7E1,2.2E1,3E0,4.1786E2,5E1,0E0,2E0,0E0,4.5474735E-13,-1.07202664E-1,1.6E1,1.1242788E5,-1.10441744E-1,3.3E1,-1.0753443E-1,-2.786606E5,-6.105526E4,-1.0751023E-1,2.32E2,3.3216E4,-1.0685016E-1,2.5227544E5,3.29E2,4E0,1.460397E4,1.0000001E-2,2.170034E4,-1.0752135E-1,-4.026241E-2,-1.0883738E-1,-1.0956234E-1,1.3703999E-1,4.384732E-1,-1.04013E-1,-8.988255E-2,1.264348E-1,-1.0989036E-1,-1.15680434E-1,-8.906055E-2,-1.0743034E-1,-1.0759153E-1,-1.1244513E-1,-7.159015E-2,1.136503E-1,1.1200973E-1,-2.4062188E-1,-1.4661187E-1,1.08097665E-1,1.2412452E-1,1.0808015E-1,1.0766476E-1,1.0681506E-1,-1.1497214E-1,-1.1049316E-1],"split_indices":[8,0,3,2,6,8,1,6,7,9,0,1,0,11,0,0,0,11,3,2,7,11,7,8,0,0,7,0,0,0,7,8,0,0,6,0,2,0,11,1,9,3,0,0,0,0,0,0,0,0,0,0,0,0,0,0,0,0,0,0,0,0,0,0,0,0,0,0,0],"split_type":[0,0,0,0,0,0,0,0,0,0,0,0,0,0,0,0,0,0,0,0,0,0,0,0,0,0,0,0,0,0,0,0,0,0,0,0,0,0,0,0,0,0,0,0,0,0,0,0,0,0,0,0,0,0,0,0,0,0,0,0,0,0,0,0,0,0,0,0,0],"sum_hessian":[3.7527597E5,1.6000705E5,2.1526892E5,2.9027338E4,1.3097971E5,1.8126489E5,3.4004023E4,1.6414166E4,1.2613172E4,1.3066444E5,3.152732E2,1.8118239E5,8.249538E1,3.329522E4,7.088059E2,1.6137568E4,2.765972E2,1.1672944E3,1.1445878E4,1.29891445E5,7.7299286E2,5.99082E3,1.7519158E5,7.2727993E3,2.6022418E4,1.4031402E4,2.1061655E3,3.804169E1,2.3855551E2,9.468965E2,2.2039801E2,5.8255806E3,5.620297E3,5.3089895E4,7.6801555E4,5.173901E2,2.5560278E2,3.3473801E3,2.64344E3,1.3329365E3,1.7385864E5,5.8420503E3,1.4307487E3,7.535244E3,6.4961587E3,6.895399E2,1.4166256E3,2.2567921E2,1.2876303E1,3.7145858E0,2.1668343E2,3.8541858E3,1.9713948E3,2.7485852E4,2.5604043E4,6.294935E4,1.3852203E4,1.2798501E0,2.5432294E2,3.3451897E3,2.1903508E0,2.9293134E2,2.3505085E3,5.2744446E2,8.0549207E2,8.898944E4,8.48692E4,1.0407405E3,4.80131E3],"tree_param":{"num_deleted":"0","num_feature":"12","num_nodes":"69","size_leaf_vector":"1"}},{"base_weights":[-2.6501413E-4,-9.6648073E-1,7.27987E-1,-9.716663E-1,1.06361344E-1,1.0605565E0,-9.935764E-1,-8.557855E-1,-1.0561643E0,1.061603E0,-1.1252975E-1,-1.0713769E0,1.0621774E-1,-1.0686927E-1,-7.0166546E-1,-5.788903E-1,-1.0582222E0,7.943459E-1,1.0637795E0,-1.0922829E-1,-1.0644402E-1,2.508106E0,-9.030763E-1,1.0571895E-1,-1.0741978E-1,-9.872703E-1,-1.0721583E0,3.2916442E-1,1.0702208E0,9.704949E-1,1.0651722E0,4.9365726E-1,2.2418165E-1,4.8612203E-2,-9.338829E-2,-1.072403E-1,1.04118906E-1,-9.7837195E-2,-1.0799249E-1,-1.6340737E-1,5.2792784E-2,1.1005105E-1,-1.7448092E-1,9.8190404E-2,-1.4554687E-1,1.0602311E-1,1.0696067E-1],"categories":[],"categories_nodes":[],"categories_segments":[],"categories_sizes":[],"default_left":[0,0,0,0,0,0,0,0,0,0,0,0,0,0,0,0,0,0,0,0,0,0,0,0,0,0,0,0,0,0,0,0,0,0,0,0,0,0,0,0,0,0,0,0,0,0,0],"id":21,"left_children":[1,3,5,7,-1,9,11,13,15,17,-1,19,-1,-1,21,23,25,27,29,-1,-1,31,33,-1,-1,35,37,39,41,43,45,-1,-1,-1,-1,-1,-1,-1,-1,-1,-1,-1,-1,-1,-1,-1,-1],"loss_changes":[2.3998531E5,1.544125E3,1.1134718E5,1.4307031E3,0E0,3.74E2,5.037121E3,2.0225156E3,8.24375E1,9.3921875E1,0E0,3.2382812E0,0E0,0E0,2.3127545E4,2.9709637E2,8.21875E1,1.69047E2,1.9953125E1,0E0,0E0,1.3549268E3,1.4409629E3,0E0,0E0,2.3899668E3,5.01875E1,1.9318149E2,7.2534546E1,6.753491E1,2.359375E0,0E0,0E0,0E0,0E0,0E0,0E0,0E0,0E0,0E0,0E0,0E0,0E0,0E0,0E0,0E0,0E0],"parents":[2147483647,0,0,1,1,2,2,3,3,5,5,6,6,7,7,8,8,9,9,11,11,14,14,15,15,16,16,17,17,18,18,21,21,22,22,25,25,26,26,27,27,28,28,29,29,30,30],"right_children":[2,4,6,8,-1,10,12,14,16,18,-1,20,-1,-1,22,24,26,28,30,-1,-1,32,34,-1,-1,36,38,40,42,44,46,-1,-1,-1,-1,-1,-1,-1,-1,-1,-1,-1,-1,-1,-1,-1,-1],"split_conditions":[0E0,1E7,4.1786E2,5E1,1.06361344E-1,4.5474735E-13,1E7,3.845089E4,-2.671123E6,1.3848E3,-1.1252975E-1,1.0000001E-2,1.0621774E-1,-1.0686927E-1,4.537246E4,4.82391E3,4.654E3,1.6970934E5,6.33158E3,-1.0922829E-1,-1.0644402E-1,4.122768E4,4.15166E4,1.0571895E-1,-1.0741978E-1,4.26863E3,-2.6466203E5,1.4719E2,4.16E2,6.013E3,4.82391E3,4.9365726E-1,2.2418165E-1,4.8612203E-2,-9.338829E-2,-1.072403E-1,1.04118906E-1,-9.7837195E-2,-1.0799249E-1,-1.6340737E-1,5.2792784E-2,1.1005105E-1,-1.7448092E-1,9.8190404E-2,-1.4554687E-1,1.0602311E-1,1.0696067E-1],"split_indices":[8,6,3,2,0,8,6,7,8,1,0,9,0,0,4,5,2,5,6,0,0,5,7,0,0,6,7,9,2,2,5,0,0,0,0,0,0,0,0,0,0,0,0,0,0,0,0],"split_type":[0,0,0,0,0,0,0,0,0,0,0,0,0,0,0,0,0,0,0,0,0,0,0,0,0,0,0,0,0,0,0,0,0,0,0,0,0,0,0,0,0,0,0,0,0,0,0],"sum_hessian":[3.4105653E5,1.4657988E5,1.9447664E5,1.4620692E5,3.7294183E2,1.6299069E5,3.1485957E4,6.165887E4,